{"learner":{"attributes":{"best_iteration":"195","best_score":"24.428448825601425"},"feature_names":["DEWP","TEMP","PRES","Iws","Is","Ir","hour","dow","month","hour_sin","hour_cos","pm_lag_1","pm_lag_3","pm_lag_6","pm_lag_12","pm_lag_24","pm_roll_3","pm_roll_6","pm_roll_12","pm_roll_24","cbwd_NE","cbwd_NW","cbwd_SE","cbwd_cv","cbwd_nan"],"feature_types":["int","float","float","float","int","int","int","int","int","float","float","float","float","float","float","float","float","float","float","float","i","i","i","i","i"],"gradient_booster":{"model":{"gbtree_model_param":{"num_parallel_tree":"1","num_trees":"216"},"iteration_indptr":[0,1,2,3,4,5,6,7,8,9,10,11,12,13,14,15,16,17,18,19,20,21,22,23,24,25,26,27,28,29,30,31,32,33,34,35,36,37,38,39,40,41,42,43,44,45,46,47,48,49,50,51,52,53,54,55,56,57,58,59,60,61,62,63,64,65,66,67,68,69,70,71,72,73,74,75,76,77,78,79,80,81,82,83,84,85,86,87,88,89,90,91,92,93,94,95,96,97,98,99,100,101,102,103,104,105,106,107,108,109,110,111,112,113,114,115,116,117,118,119,120,121,122,123,124,125,126,127,128,129,130,131,132,133,134,135,136,137,138,139,140,141,142,143,144,145,146,147,148,149,150,151,152,153,154,155,156,157,158,159,160,161,162,163,164,165,166,167,168,169,170,171,172,173,174,175,176,177,178,179,180,181,182,183,184,185,186,187,188,189,190,191,192,193,194,195,196,197,198,199,200,201,202,203,204,205,206,207,208,209,210,211,212,213,214,215,216],"tree_info":[0,0,0,0,0,0,0,0,0,0,0,0,0,0,0,0,0,0,0,0,0,0,0,0,0,0,0,0,0,0,0,0,0,0,0,0,0,0,0,0,0,0,0,0,0,0,0,0,0,0,0,0,0,0,0,0,0,0,0,0,0,0,0,0,0,0,0,0,0,0,0,0,0,0,0,0,0,0,0,0,0,0,0,0,0,0,0,0,0,0,0,0,0,0,0,0,0,0,0,0,0,0,0,0,0,0,0,0,0,0,0,0,0,0,0,0,0,0,0,0,0,0,0,0,0,0,0,0,0,0,0,0,0,0,0,0,0,0,0,0,0,0,0,0,0,0,0,0,0,0,0,0,0,0,0,0,0,0,0,0,0,0,0,0,0,0,0,0,0,0,0,0,0,0,0,0,0,0,0,0,0,0,0,0,0,0,0,0,0,0,0,0,0,0,0,0,0,0,0,0,0,0,0,0,0,0,0,0,0,0,0,0,0,0,0,0],"trees":[{"base_weights":[-1.6205876E-1,-3.778099E1,1.2728014E2,-6.641894E1,1.0249896E0,9.40892E1,2.4441988E2,-7.9341675E1,-4.9347027E1,-1.4413104E1,2.4088993E1,6.78281E1,1.2637086E2,2.0864249E2,3.2990903E2,-8.3893684E1,-7.157679E1,-5.6834946E1,-4.186937E1,-2.2853367E1,-3.7890463E0,1.3873932E1,3.32447E1,5.575438E1,8.082446E1,1.1364106E2,1.4934828E2,1.9269258E2,2.3966058E2,2.8642972E2,3.7122836E2,-8.653878E1,-8.040027E1,-6.517494E1,-7.352711E1,-5.948879E1,-5.2518505E1,-3.693864E1,-4.5951694E1,-1.7494627E1,-2.6265184E1,-3.212953E0,-5.3076534E1,1.4951608E1,-3.3749607E1,3.5022484E1,-6.921679E0,5.8252396E1,8.868046E0,2.2375011E1,8.015765E1,1.1623551E2,2.9049173E1,1.3878987E2,1.6813553E2,1.9471585E2,-1.0571082E1,2.4156717E2,-1.7666533E0,1.7000102E0,2.8757935E2,3.740318E2,6.900027E1,-4.4287295E0,-4.229626E0,-5.249899E-1,-4.021672E0,-3.2767282E0,-5.499839E-1,-3.8062298E0,-3.4583013E0,-3.1257966E0,-2.7212234E0,-2.3685563E0,-2.7334385E0,-2.084278E0,-1.6033547E0,-2.4654014E0,-2.0294306E0,-3.1705308E-1,-9.706896E-1,-1.1476314E0,-1.6560297E0,-4.3623552E-1,1.0490147E-1,-2.956799E0,-7.8998387E-1,8.1871647E-1,-8.4409773E-1,-5.264515E-1,-2.5899808E0,1.8001976E0,-9.822385E-1,7.990934E-3,-3.0222042E0,3.0523927E0,1.7601651E0,1.1214484E0,-1.2399808E0,4.1484604E0,1.5632552E0,5.2818446E0,6.4188323E0,3.535436E0,-1.4055365E0,4.5215716E0,7.2583933E0,8.452346E0,-1.6749899E0,1.0481969E1,8.913871E0,1.5001684E-1,-2.29999E0,1.2202661E1,2.130016E0,1.4467041E1,4.0666804E0,1.6790226E1,2.0456335E1,5.750101E-1,4.60001E0],"categories":[],"categories_nodes":[],"categories_segments":[],"categories_sizes":[],"default_left":[0,0,0,0,0,0,0,0,0,0,0,0,0,0,0,0,0,0,0,0,0,0,0,0,0,0,0,0,0,0,0,0,0,0,0,0,0,0,0,0,0,0,0,0,0,0,0,0,0,0,0,0,0,0,0,0,0,0,0,0,0,0,0,0,0,0,0,0,0,0,0,0,0,0,0,0,0,0,0,0,0,0,0,0,0,0,0,0,0,0,0,0,0,0,0,0,0,0,0,0,0,0,0,0,0,0,0,0,0,0,0,0,0,0,0,0,0,0,0,0,0],"id":0,"left_children":[1,3,5,7,9,11,13,15,17,19,21,23,25,27,29,31,33,35,37,39,41,43,45,47,49,51,53,55,57,59,61,63,65,67,69,71,73,75,77,79,81,83,85,87,89,91,93,95,97,-1,99,101,103,105,107,109,111,113,-1,-1,115,117,119,-1,-1,-1,-1,-1,-1,-1,-1,-1,-1,-1,-1,-1,-1,-1,-1,-1,-1,-1,-1,-1,-1,-1,-1,-1,-1,-1,-1,-1,-1,-1,-1,-1,-1,-1,-1,-1,-1,-1,-1,-1,-1,-1,-1,-1,-1,-1,-1,-1,-1,-1,-1,-1,-1,-1,-1,-1,-1],"loss_changes":[1.2430027E8,2.2246542E7,2.2951064E7,2.53714E6,3.0272495E6,3.896176E6,3.919552E6,2.25656E5,2.75622E5,4.5660188E5,3.1836925E5,3.94369E5,5.87036E5,4.09964E5,5.81744E5,3.1168E4,2.5534E4,2.52615E4,4.8383E4,5.142775E4,6.3886742E4,8.328822E4,1.28561E5,1.54203E5,2.62913E5,2.89178E5,1.22066E5,2.54572E5,1.70544E5,4.565E4,1.37716E5,1.758E3,3.309E3,1.0501E4,1.5737E4,2.0007E4,7.94725E3,2.4840625E4,2.242525E4,2.3572812E4,3.8571625E4,6.5326023E4,4.9384766E3,7.174447E4,1.454334E4,9.304625E4,2.9194105E4,7.8649E4,3.1602617E4,0E0,1.6525E5,1.5282E5,9.961916E4,1.33377E5,5.32585E4,1.1178E5,3.5037407E3,1.41458E5,0E0,0E0,4.5493E4,1.18854E5,2.9094717E3,0E0,0E0,0E0,0E0,0E0,0E0,0E0,0E0,0E0,0E0,0E0,0E0,0E0,0E0,0E0,0E0,0E0,0E0,0E0,0E0,0E0,0E0,0E0,0E0,0E0,0E0,0E0,0E0,0E0,0E0,0E0,0E0,0E0,0E0,0E0,0E0,0E0,0E0,0E0,0E0,0E0,0E0,0E0,0E0,0E0,0E0,0E0,0E0,0E0,0E0,0E0,0E0,0E0,0E0,0E0,0E0,0E0,0E0],"parents":[2147483647,0,0,1,1,2,2,3,3,4,4,5,5,6,6,7,7,8,8,9,9,10,10,11,11,12,12,13,13,14,14,15,15,16,16,17,17,18,18,19,19,20,20,21,21,22,22,23,23,24,24,25,25,26,26,27,27,28,28,29,29,30,30,31,31,32,32,33,33,34,34,35,35,36,36,37,37,38,38,39,39,40,40,41,41,42,42,43,43,44,44,45,45,46,46,47,47,48,48,50,50,51,51,52,52,53,53,54,54,55,55,56,56,57,57,60,60,61,61,62,62],"right_children":[2,4,6,8,10,12,14,16,18,20,22,24,26,28,30,32,34,36,38,40,42,44,46,48,50,52,54,56,58,60,62,64,66,68,70,72,74,76,78,80,82,84,86,88,90,92,94,96,98,-1,100,102,104,106,108,110,112,114,-1,-1,116,118,120,-1,-1,-1,-1,-1,-1,-1,-1,-1,-1,-1,-1,-1,-1,-1,-1,-1,-1,-1,-1,-1,-1,-1,-1,-1,-1,-1,-1,-1,-1,-1,-1,-1,-1,-1,-1,-1,-1,-1,-1,-1,-1,-1,-1,-1,-1,-1,-1,-1,-1,-1,-1,-1,-1,-1,-1,-1,-1],"split_conditions":[1.47E2,6.3333332E1,2.77E2,3.1333334E1,1.04E2,1.9766667E2,3.84E2,1.9666666E1,4.6333332E1,8.4333336E1,1.22E2,1.6966667E2,2.4033333E2,3.3033334E2,4.33E2,1.4333333E1,-7.0710677E-1,1.6E1,4.92E0,3.12E0,1.9825E2,1.37E2,1.56E2,1.81E2,-2.3E1,2.58E2,1.6E1,3.67E2,4.85E2,-1.5E1,2.369E1,1.1E1,6E0,3.65E2,2.6E1,4.0666668E1,4.02E0,5.4666668E1,1.7E1,-5E-1,8.5166664E1,9.3333336E1,7.0710677E-1,1.7441667E2,1.16583336E2,2.3833333E2,1.7291667E2,1.8681818E2,1.69E2,2.2375011E1,2.06E2,2.1766667E2,2.01E2,-8E0,4E0,1.2246469E-16,4E0,1E0,-1.7666533E0,1.7000102E0,4.85E2,4.85E2,-1E1,-4.4287295E0,-4.229626E0,-5.249899E-1,-4.021672E0,-3.2767282E0,-5.499839E-1,-3.8062298E0,-3.4583013E0,-3.1257966E0,-2.7212234E0,-2.3685563E0,-2.7334385E0,-2.084278E0,-1.6033547E0,-2.4654014E0,-2.0294306E0,-3.1705308E-1,-9.706896E-1,-1.1476314E0,-1.6560297E0,-4.3623552E-1,1.0490147E-1,-2.956799E0,-7.8998387E-1,8.1871647E-1,-8.4409773E-1,-5.264515E-1,-2.5899808E0,1.8001976E0,-9.822385E-1,7.990934E-3,-3.0222042E0,3.0523927E0,1.7601651E0,1.1214484E0,-1.2399808E0,4.1484604E0,1.5632552E0,5.2818446E0,6.4188323E0,3.535436E0,-1.4055365E0,4.5215716E0,7.2583933E0,8.452346E0,-1.6749899E0,1.0481969E1,8.913871E0,1.5001684E-1,-2.29999E0,1.2202661E1,2.130016E0,1.4467041E1,4.0666804E0,1.6790226E1,2.0456335E1,5.750101E-1,4.60001E0],"split_indices":[16,16,16,16,16,16,16,16,16,16,16,16,16,16,16,16,9,6,3,3,18,11,11,11,0,11,6,11,11,0,3,16,11,14,16,16,3,16,6,9,18,16,10,18,18,18,18,18,18,0,11,16,14,0,5,9,7,5,0,0,11,11,0,0,0,0,0,0,0,0,0,0,0,0,0,0,0,0,0,0,0,0,0,0,0,0,0,0,0,0,0,0,0,0,0,0,0,0,0,0,0,0,0,0,0,0,0,0,0,0,0,0,0,0,0,0,0,0,0,0,0],"split_type":[0,0,0,0,0,0,0,0,0,0,0,0,0,0,0,0,0,0,0,0,0,0,0,0,0,0,0,0,0,0,0,0,0,0,0,0,0,0,0,0,0,0,0,0,0,0,0,0,0,0,0,0,0,0,0,0,0,0,0,0,0,0,0,0,0,0,0,0,0,0,0,0,0,0,0,0,0,0,0,0,0,0,0,0,0,0,0,0,0,0,0,0,0,0,0,0,0,0,0,0,0,0,0,0,0,0,0,0,0,0,0,0,0,0,0,0,0,0,0,0,0],"sum_hessian":[2.5925E4,2.0017E4,5.908E3,1.1517E4,8.5E3,4.605E3,1.303E3,6.553E3,4.964E3,5.092E3,3.408E3,2.541E3,2.064E3,9.21E2,3.82E2,4.125E3,2.428E3,2.477E3,2.487E3,2.837E3,2.255E3,1.612E3,1.796E3,1.32E3,1.221E3,1.332E3,7.32E2,6.13E2,3.08E2,1.9E2,1.92E2,2.334E3,1.791E3,5.75E2,1.853E3,1.526E3,9.51E2,1.131E3,1.356E3,1.106E3,1.731E3,2.23E3,2.5E1,1.577E3,3.5E1,1.72E3,7.6E1,1.253E3,6.7E1,1E0,1.22E3,1.292E3,4E1,4.74E2,2.58E2,6.07E2,6E0,3.06E2,2E0,1E0,1.89E2,1.9E2,2E0,1.119E3,1.215E3,1E0,1.79E3,5.71E2,4E0,1.151E3,7.02E2,9.48E2,5.78E2,2.87E2,6.64E2,5.69E2,5.62E2,8.29E2,5.27E2,1.63E2,9.43E2,1.17E3,5.61E2,1.094E3,1.136E3,2.1E1,4E0,1.51E3,6.7E1,1.6E1,1.9E1,1.69E3,3E1,6.8E1,8E0,1.116E3,1.37E2,4.8E1,1.9E1,1.153E3,6.7E1,6.95E2,5.97E2,2.3E1,1.7E1,5.7E1,4.17E2,2.57E2,1E0,3.12E2,2.95E2,5E0,1E0,3.02E2,4E0,1.87E2,2E0,9.6E1,9.4E1,1E0,1E0],"tree_param":{"num_deleted":"0","num_feature":"25","num_nodes":"121","size_leaf_vector":"1"}},{"base_weights":[1.1977672E-1,-3.7702087E1,1.1536347E2,-6.2952854E1,-1.5440445E0,8.371187E1,2.3486891E2,-7.509165E1,-4.6512897E1,-1.7568476E1,1.52736635E1,5.6357952E1,1.1385242E2,1.9765819E2,3.1558182E2,-7.944202E1,-6.723782E1,-5.3149303E1,-3.903329E1,-2.4593466E1,-1.10490055E1,6.3096676E0,2.5631767E1,4.701678E1,6.697777E1,9.6385376E1,1.3427211E2,1.8336975E2,2.265741E2,2.9017456E2,3.8547003E2,-8.226597E1,-7.6131775E1,-6.923481E1,-5.975436E1,-5.596717E1,-4.7603367E1,-3.5043453E1,-4.556684E1,-2.2317726E1,-3.9517735E1,-7.8644614E0,-2.4937841E1,9.082768E0,-1.4784787E1,2.768213E1,-1.1648558E1,4.9843296E1,1.4967627E1,6.9403854E1,-1.4368753E1,1.00563156E2,5.7020508E1,1.246776E2,1.5711076E2,1.8525598E2,3.3683678E1,2.2892918E2,4.0896313E1,1.6026556E1,2.7621344E2,1.1449685E2,4.0000217E2,-4.208078E0,-4.020572E0,-3.8396358E0,-3.4748657E0,-3.15235E0,-3.5480912E0,-2.9998589E0,5.595029E-2,-2.5480795E0,-3.0069654E0,-2.2667882E0,-2.547155E0,-1.9404643E0,-1.357802E0,-3.4093685E0,-2.2142766E0,-1.3059802E0,-9.314305E-1,-2.9043078E0,-1.7321621E0,2.1706817E0,-4.151754E-1,-1.0837852E0,-2.2093813E0,5.457271E0,4.296987E-1,-1.2243063E0,-6.621667E-3,1.4520593E0,-1.5894243E-1,-1.1993881E0,7.4988836E-1,2.5389192E0,6.0598415E-1,-2.1270221E-2,1.8951235E0,5.515343E0,3.338213E0,9.300572E-1,-3.198234E0,1.1946941E1,4.98865E0,3.3984954E0,-9.2354316E-1,6.3002505E0,9.608966E-1,7.925313E0,-2.2986445E0,9.405459E0,4.5341105E0,3.2345994E0,-1.0624855E0,1.0768625E1,1.3284757E1,5.729013E0,-2.320987E0,1.3904773E1,5.182501E0,8.19123E0,1.8272454E0,2.275569E1,1.7996672E1],"categories":[],"categories_nodes":[],"categories_segments":[],"categories_sizes":[],"default_left":[0,0,0,0,0,0,0,0,0,0,0,0,0,0,0,0,0,0,0,0,0,0,0,0,0,0,0,0,0,0,0,0,0,0,0,0,0,0,0,0,0,0,0,0,0,0,0,0,0,0,0,0,0,0,0,0,0,0,0,0,0,0,0,0,0,0,0,0,0,0,0,0,0,0,0,0,0,0,0,0,0,0,0,0,0,0,0,0,0,0,0,0,0,0,0,0,0,0,0,0,0,0,0,0,0,0,0,0,0,0,0,0,0,0,0,0,0,0,0,0,0,0,0,0,0],"id":1,"left_children":[1,3,5,7,9,11,13,15,17,19,21,23,25,27,29,31,33,35,37,39,41,43,45,47,49,51,53,55,57,59,61,63,65,67,69,71,73,75,77,79,81,83,85,87,89,91,93,95,97,99,101,103,105,107,109,111,113,115,117,-1,119,121,123,-1,-1,-1,-1,-1,-1,-1,-1,-1,-1,-1,-1,-1,-1,-1,-1,-1,-1,-1,-1,-1,-1,-1,-1,-1,-1,-1,-1,-1,-1,-1,-1,-1,-1,-1,-1,-1,-1,-1,-1,-1,-1,-1,-1,-1,-1,-1,-1,-1,-1,-1,-1,-1,-1,-1,-1,-1,-1,-1,-1,-1,-1],"loss_changes":[1.13688776E8,1.7929754E7,2.43588E7,2.304036E6,2.1767032E6,4.195868E6,3.989192E6,2.21872E5,2.41845E5,1.8915388E5,3.6576012E5,2.62116E5,8.51628E5,3.41044E5,6.41028E5,3.369E4,3.1384E4,3.7984E4,5.8724E4,6.6705875E4,9.476486E4,1.2379707E5,1.4005162E5,1.2843175E5,2.474925E5,2.09706E5,2.24738E5,1.70224E5,1.22698E5,4.4964E4,3.87362E5,1.297E3,3.35E3,1.551E4,7.576E3,3.28345E4,4.3775E3,4.1747625E4,2.231225E4,2.3763625E4,2.1701781E4,3.9714047E4,2.4160375E4,9.047494E4,3.4965035E4,7.277725E4,3.1924031E4,4.55945E4,4.132142E4,1.236E5,6.1691207E4,1.0551E5,1.07058375E5,1.08169E5,9.96755E4,1.49434E5,1.670521E4,9.1308E4,3.7487742E4,0E0,4.36E4,2.0929398E4,6.5846E4,0E0,0E0,0E0,0E0,0E0,0E0,0E0,0E0,0E0,0E0,0E0,0E0,0E0,0E0,0E0,0E0,0E0,0E0,0E0,0E0,0E0,0E0,0E0,0E0,0E0,0E0,0E0,0E0,0E0,0E0,0E0,0E0,0E0,0E0,0E0,0E0,0E0,0E0,0E0,0E0,0E0,0E0,0E0,0E0,0E0,0E0,0E0,0E0,0E0,0E0,0E0,0E0,0E0,0E0,0E0,0E0,0E0,0E0,0E0,0E0,0E0,0E0],"parents":[2147483647,0,0,1,1,2,2,3,3,4,4,5,5,6,6,7,7,8,8,9,9,10,10,11,11,12,12,13,13,14,14,15,15,16,16,17,17,18,18,19,19,20,20,21,21,22,22,23,23,24,24,25,25,26,26,27,27,28,28,29,29,30,30,31,31,32,32,33,33,34,34,35,35,36,36,37,37,38,38,39,39,40,40,41,41,42,42,43,43,44,44,45,45,46,46,47,47,48,48,49,49,50,50,51,51,52,52,53,53,54,54,55,55,56,56,57,57,58,58,60,60,61,61,62,62],"right_children":[2,4,6,8,10,12,14,16,18,20,22,24,26,28,30,32,34,36,38,40,42,44,46,48,50,52,54,56,58,60,62,64,66,68,70,72,74,76,78,80,82,84,86,88,90,92,94,96,98,100,102,104,106,108,110,112,114,116,118,-1,120,122,124,-1,-1,-1,-1,-1,-1,-1,-1,-1,-1,-1,-1,-1,-1,-1,-1,-1,-1,-1,-1,-1,-1,-1,-1,-1,-1,-1,-1,-1,-1,-1,-1,-1,-1,-1,-1,-1,-1,-1,-1,-1,-1,-1,-1,-1,-1,-1,-1,-1,-1,-1,-1,-1,-1,-1,-1,-1,-1,-1,-1,-1,-1],"split_conditions":[1.3966667E2,6.3333332E1,2.77E2,3.2E1,9.4333336E1,1.8633333E2,3.84E2,2.0333334E1,4.7333332E1,7.7333336E1,1.16E2,1.6233333E2,2.2433333E2,3.3033334E2,4.7966666E2,1.4333333E1,1E0,1E0,5.8E1,8.6833336E1,9.6666664E1,1.235E2,1.6116667E2,1.75E2,2.06E2,2.2816667E2,1.7E1,3.67E2,1E0,-5E-1,7.5E1,1.1E1,1E0,3.12E0,1.7441667E2,4.02E0,4.4E1,5.6333332E1,3.7E1,7E1,5.6E1,6.3E1,1.26166664E2,6.7E1,1E0,1.49E2,1E0,1.77E2,1E0,1.385E2,1.765E2,6.1958332E1,2.39E2,3.2366666E2,4.08E2,3.5716666E2,1.028E1,1.7E1,8E0,1.6026556E1,2E0,-1.1E1,2E0,-4.208078E0,-4.020572E0,-3.8396358E0,-3.4748657E0,-3.15235E0,-3.5480912E0,-2.9998589E0,5.595029E-2,-2.5480795E0,-3.0069654E0,-2.2667882E0,-2.547155E0,-1.9404643E0,-1.357802E0,-3.4093685E0,-2.2142766E0,-1.3059802E0,-9.314305E-1,-2.9043078E0,-1.7321621E0,2.1706817E0,-4.151754E-1,-1.0837852E0,-2.2093813E0,5.457271E0,4.296987E-1,-1.2243063E0,-6.621667E-3,1.4520593E0,-1.5894243E-1,-1.1993881E0,7.4988836E-1,2.5389192E0,6.0598415E-1,-2.1270221E-2,1.8951235E0,5.515343E0,3.338213E0,9.300572E-1,-3.198234E0,1.1946941E1,4.98865E0,3.3984954E0,-9.2354316E-1,6.3002505E0,9.608966E-1,7.925313E0,-2.2986445E0,9.405459E0,4.5341105E0,3.2345994E0,-1.0624855E0,1.0768625E1,1.3284757E1,5.729013E0,-2.320987E0,1.3904773E1,5.182501E0,8.19123E0,1.8272454E0,2.275569E1,1.7996672E1],"split_indices":[16,16,16,16,16,16,16,16,16,16,16,16,16,16,16,16,22,22,17,17,17,17,17,17,11,17,6,11,5,9,15,16,22,3,18,3,13,16,11,16,11,11,17,11,22,11,22,11,22,17,18,19,11,17,13,17,3,6,6,0,5,1,8,0,0,0,0,0,0,0,0,0,0,0,0,0,0,0,0,0,0,0,0,0,0,0,0,0,0,0,0,0,0,0,0,0,0,0,0,0,0,0,0,0,0,0,0,0,0,0,0,0,0,0,0,0,0,0,0,0,0,0,0,0,0],"split_type":[0,0,0,0,0,0,0,0,0,0,0,0,0,0,0,0,0,0,0,0,0,0,0,0,0,0,0,0,0,0,0,0,0,0,0,0,0,0,0,0,0,0,0,0,0,0,0,0,0,0,0,0,0,0,0,0,0,0,0,0,0,0,0,0,0,0,0,0,0,0,0,0,0,0,0,0,0,0,0,0,0,0,0,0,0,0,0,0,0,0,0,0,0,0,0,0,0,0,0,0,0,0,0,0,0,0,0,0,0,0,0,0,0,0,0,0,0,0,0,0,0,0,0,0,0],"sum_hessian":[2.6081E4,1.9637E4,6.444E3,1.1562E4,8.075E3,5.096E3,1.348E3,6.649E3,4.913E3,4.135E3,3.94E3,2.673E3,2.423E3,9.25E2,4.23E2,4.273E3,2.376E3,2.6E3,2.313E3,1.989E3,2.146E3,2.113E3,1.827E3,1.425E3,1.248E3,1.309E3,1.114E3,6.24E2,3.01E2,3.14E2,1.09E2,2.293E3,1.98E3,1.869E3,5.07E2,1.718E3,8.82E2,1.44E3,8.73E2,1.728E3,2.61E2,1.747E3,3.99E2,1.868E3,2.45E2,1.732E3,9.5E1,1.309E3,1.16E2,1.212E3,3.6E1,1.182E3,1.27E2,7.89E2,3.25E2,6.16E2,8E0,2.97E2,4E0,9.2E1,2.22E2,6E0,1.03E2,1.112E3,1.181E3,1.791E3,1.89E2,4.16E2,1.453E3,5.05E2,2E0,7.87E2,9.31E2,5.34E2,3.48E2,9.72E2,4.68E2,4.4E1,8.29E2,8.48E2,8.8E2,5.2E1,2.09E2,1.4E1,1.733E3,3.43E2,5.6E1,8E0,1.86E3,1.47E2,9.8E1,1.659E3,7.3E1,6.5E1,3E1,1.277E3,3.2E1,7E1,4.6E1,7.1E1,1.141E3,2.2E1,1.4E1,5E0,1.177E3,1.11E2,1.6E1,7.79E2,1E1,3.23E2,2E0,5.97E2,1.9E1,5E0,3E0,2.22E2,7.5E1,2E0,2E0,2.19E2,3E0,3E0,3E0,3.9E1,6.4E1],"tree_param":{"num_deleted":"0","num_feature":"25","num_nodes":"125","size_leaf_vector":"1"}},{"base_weights":[8.5090786E-2,-3.4352394E1,1.1442233E2,-5.850773E1,2.296059E0,8.279142E1,2.2456165E2,-7.154E1,-4.2789978E1,-9.987078E0,2.3144451E1,5.5692272E1,1.0804076E2,1.8985258E2,3.0291354E2,-7.535732E1,-6.43175E1,-4.95772E1,-3.372786E1,-1.9001694E1,-2.0386322E0,2.697174E1,-5.2654862E0,5.9347687E1,1.4692003E1,9.445689E1,1.3105057E2,1.7477887E2,2.1938957E2,2.788732E2,3.675554E2,-3.9462821E0,-7.297506E1,-6.067042E1,-6.753518E1,-4.629127E1,-5.577894E1,-3.0229393E1,-4.5618404E1,-1.6197447E1,-3.8301968E1,3.102433E0,-1.7733429E1,2.1133997E1,3.9998287E1,-2.100399E1,1.059304E1,5.1926384E1,7.1315735E1,2.0232622E1,-4.544161E1,9.9807594E1,5.290824E1,1.3753662E2,7.498333E1,1.8142192E2,1.2066983E2,2.219727E2,1.6907795E1,1.3098906E0,2.796231E2,1.4539243E2,3.8151328E2,-3.521383E0,-3.7111313E0,-3.2501035E0,-2.796191E0,-3.4393349E0,-3.1894357E0,-2.5228176E0,-2.1342568E0,-2.9275632E0,-2.5551612E0,-1.7127116E0,-1.294241E0,-2.0219982E0,-2.7336128E0,-3.255837E-1,-9.2134553E-1,-1.5915688E0,-2.4884565E0,-2.2424404E-1,4.4034058E-1,-5.7648385E-1,-1.775279E0,1.4231174E0,6.1570233E-1,2.3834615E0,1.6016315E0,-8.283183E-1,-3.0767167E0,7.776663E-1,-2.1676779E0,2.819794E0,1.719739E0,1.6883415E1,3.5275095E0,-4.1108808E-1,1.5384805E0,-1.1601686E0,-3.007993E0,2.1516962E1,4.9621577E0,3.1548688E0,-1.265096E0,7.1771045E0,5.7535663E0,4.432096E0,5.815198E-1,9.787973E0,8.1659565E0,6.655179E0,1.0112892E0,1.1613502E1,8.636703E0,-2.1086545E0,3.5176373E0,1.4013049E1,2.1907148E0,1.0224415E1,1.7587236E0,2.0827559E1,1.633281E1],"categories":[],"categories_nodes":[],"categories_segments":[],"categories_sizes":[],"default_left":[0,0,0,0,0,0,0,0,0,0,0,0,0,0,0,0,0,0,0,0,0,0,0,0,0,0,0,0,0,0,0,0,0,0,0,0,0,0,0,0,0,0,0,0,0,0,0,0,0,0,0,0,0,0,0,0,0,0,0,0,0,0,0,0,0,0,0,0,0,0,0,0,0,0,0,0,0,0,0,0,0,0,0,0,0,0,0,0,0,0,0,0,0,0,0,0,0,0,0,0,0,0,0,0,0,0,0,0,0,0,0,0,0,0,0,0,0,0,0,0,0,0,0],"id":2,"left_children":[1,3,5,7,9,11,13,15,17,19,21,23,25,27,29,31,33,35,37,39,41,43,45,47,49,51,53,55,57,59,61,-1,63,65,67,69,71,73,75,77,79,81,83,85,87,89,91,93,95,97,99,101,103,105,107,109,111,113,115,-1,117,119,121,-1,-1,-1,-1,-1,-1,-1,-1,-1,-1,-1,-1,-1,-1,-1,-1,-1,-1,-1,-1,-1,-1,-1,-1,-1,-1,-1,-1,-1,-1,-1,-1,-1,-1,-1,-1,-1,-1,-1,-1,-1,-1,-1,-1,-1,-1,-1,-1,-1,-1,-1,-1,-1,-1,-1,-1,-1,-1,-1,-1],"loss_changes":[1.0228409E8,1.7673378E7,2.0929544E7,2.461756E6,2.0314866E6,3.191418E6,3.589368E6,1.76484E5,3.3397E5,3.5764903E5,3.1992588E5,3.372415E5,7.43396E5,3.76608E5,5.34644E5,3.0768E4,2.267E4,6.09585E4,9.5962E4,1.2597269E5,2.1420089E5,1.96265E5,8.757881E4,1.8024E5,6.28904E4,3.33527E5,3.15158E5,2.01686E5,1.5891E5,5.0088E4,2.79432E5,0E0,3.004E3,1.854975E4,1.253E3,2.85465E4,1.09425E4,3.078075E4,2.2638125E4,4.4018312E4,2.0378781E4,8.6601305E4,7.1807E4,1.15476625E5,4.74175E4,3.0635688E4,4.7502633E4,9.85145E4,1.3726375E5,5.1522797E4,3.8410156E3,2.08972E5,1.4184984E5,9.1548E4,8.117369E4,1.113E5,8.59795E4,1.15537E5,1.8754867E4,0E0,3.3146E4,4.491464E4,5.806E4,0E0,0E0,0E0,0E0,0E0,0E0,0E0,0E0,0E0,0E0,0E0,0E0,0E0,0E0,0E0,0E0,0E0,0E0,0E0,0E0,0E0,0E0,0E0,0E0,0E0,0E0,0E0,0E0,0E0,0E0,0E0,0E0,0E0,0E0,0E0,0E0,0E0,0E0,0E0,0E0,0E0,0E0,0E0,0E0,0E0,0E0,0E0,0E0,0E0,0E0,0E0,0E0,0E0,0E0,0E0,0E0,0E0,0E0,0E0,0E0],"parents":[2147483647,0,0,1,1,2,2,3,3,4,4,5,5,6,6,7,7,8,8,9,9,10,10,11,11,12,12,13,13,14,14,15,15,16,16,17,17,18,18,19,19,20,20,21,21,22,22,23,23,24,24,25,25,26,26,27,27,28,28,29,29,30,30,32,32,33,33,34,34,35,35,36,36,37,37,38,38,39,39,40,40,41,41,42,42,43,43,44,44,45,45,46,46,47,47,48,48,49,49,50,50,51,51,52,52,53,53,54,54,55,55,56,56,57,57,58,58,60,60,61,61,62,62],"right_children":[2,4,6,8,10,12,14,16,18,20,22,24,26,28,30,32,34,36,38,40,42,44,46,48,50,52,54,56,58,60,62,-1,64,66,68,70,72,74,76,78,80,82,84,86,88,90,92,94,96,98,100,102,104,106,108,110,112,114,116,-1,118,120,122,-1,-1,-1,-1,-1,-1,-1,-1,-1,-1,-1,-1,-1,-1,-1,-1,-1,-1,-1,-1,-1,-1,-1,-1,-1,-1,-1,-1,-1,-1,-1,-1,-1,-1,-1,-1,-1,-1,-1,-1,-1,-1,-1,-1,-1,-1,-1,-1,-1,-1,-1,-1,-1,-1,-1,-1,-1,-1,-1,-1],"split_conditions":[1.4533333E2,6.7333336E1,2.77E2,3.1333334E1,1.08E2,1.8633333E2,3.84E2,2.0333334E1,5.0666668E1,8.4333336E1,1.6E2,2.09E2,2.3233333E2,3.3033334E2,4.7966666E2,1.2666667E1,1E0,1E0,7.2E1,1.01E2,1.07E2,1.31E2,1.31E2,1.68E2,1.99E2,2.48E2,2.93E2,3.49E2,4.38E2,-1.5E1,7.5E1,-3.9462821E0,1E0,1.5E1,2.7333334E1,4.0666668E1,4.2E1,5.8333332E1,1E0,5.6E1,1E0,9.2666664E1,1E0,1.14E2,1.28E2,1.39E2,1.56E2,1E0,1.13E2,1.5866667E2,2.06E2,-2.3E1,2.44E2,1E0,3.67E2,1.2246469E-16,3.35E2,3.91E2,-1.4E1,1.3098906E0,2.8E1,-7E0,-4E0,-3.521383E0,-3.7111313E0,-3.2501035E0,-2.796191E0,-3.4393349E0,-3.1894357E0,-2.5228176E0,-2.1342568E0,-2.9275632E0,-2.5551612E0,-1.7127116E0,-1.294241E0,-2.0219982E0,-2.7336128E0,-3.255837E-1,-9.2134553E-1,-1.5915688E0,-2.4884565E0,-2.2424404E-1,4.4034058E-1,-5.7648385E-1,-1.775279E0,1.4231174E0,6.1570233E-1,2.3834615E0,1.6016315E0,-8.283183E-1,-3.0767167E0,7.776663E-1,-2.1676779E0,2.819794E0,1.719739E0,1.6883415E1,3.5275095E0,-4.1108808E-1,1.5384805E0,-1.1601686E0,-3.007993E0,2.1516962E1,4.9621577E0,3.1548688E0,-1.265096E0,7.1771045E0,5.7535663E0,4.432096E0,5.815198E-1,9.787973E0,8.1659565E0,6.655179E0,1.0112892E0,1.1613502E1,8.636703E0,-2.1086545E0,3.5176373E0,1.4013049E1,2.1907148E0,1.0224415E1,1.7587236E0,2.0827559E1,1.633281E1],"split_indices":[16,16,16,16,16,16,16,16,16,16,12,12,16,16,16,16,21,21,12,12,12,16,16,16,11,12,12,12,11,0,15,0,21,6,16,16,16,16,21,12,21,16,21,12,12,11,11,21,11,16,11,0,11,21,12,9,11,12,0,0,1,1,0,0,0,0,0,0,0,0,0,0,0,0,0,0,0,0,0,0,0,0,0,0,0,0,0,0,0,0,0,0,0,0,0,0,0,0,0,0,0,0,0,0,0,0,0,0,0,0,0,0,0,0,0,0,0,0,0,0,0,0,0],"split_type":[0,0,0,0,0,0,0,0,0,0,0,0,0,0,0,0,0,0,0,0,0,0,0,0,0,0,0,0,0,0,0,0,0,0,0,0,0,0,0,0,0,0,0,0,0,0,0,0,0,0,0,0,0,0,0,0,0,0,0,0,0,0,0,0,0,0,0,0,0,0,0,0,0,0,0,0,0,0,0,0,0,0,0,0,0,0,0,0,0,0,0,0,0,0,0,0,0,0,0,0,0,0,0,0,0,0,0,0,0,0,0,0,0,0,0,0,0,0,0,0,0,0,0],"sum_hessian":[2.5975E4,1.9963E4,6.012E3,1.2032E4,7.931E3,4.672E3,1.34E3,6.576E3,5.456E3,4.991E3,2.94E3,2.255E3,2.417E3,9.31E2,4.09E2,4.296E3,2.28E3,3.117E3,2.339E3,2.338E3,2.653E3,2.591E3,3.49E2,2.07E3,1.85E2,1.523E3,8.94E2,6.21E2,3.1E2,3.02E2,1.07E2,1.707E3,2.589E3,1.078E3,1.202E3,2.043E3,1.074E3,1.81E3,5.29E2,2.043E3,2.95E2,1.999E3,6.54E2,1.791E3,8E2,1.75E2,1.74E2,1.281E3,7.89E2,1.7E2,1.5E1,1.348E3,1.75E2,8E2,9.4E1,5.51E2,7E1,3.06E2,4E0,1E0,3.01E2,7E0,1E2,8.7E2,1.719E3,5.57E2,5.21E2,8.88E2,3.14E2,9.42E2,1.101E3,6.67E2,4.07E2,9.36E2,8.74E2,3.4E2,1.89E2,3.83E2,1.66E3,1.91E2,1.04E2,8.58E2,1.141E3,4.86E2,1.68E2,9.77E2,8.14E2,4.05E2,3.95E2,1.59E2,1.6E1,1.6E2,1.4E1,1.019E3,2.62E2,1E0,7.88E2,4.6E1,1.24E2,7E0,8E0,1E0,1.347E3,1.55E2,2E1,6.27E2,1.73E2,7.7E1,1.7E1,3.02E2,2.49E2,6.2E1,8E0,2.5E2,5.6E1,2E0,2E0,3E2,1E0,4E0,3E0,5.7E1,4.3E1],"tree_param":{"num_deleted":"0","num_feature":"25","num_nodes":"123","size_leaf_vector":"1"}},{"base_weights":[2.0982832E-1,-3.0546087E1,1.1344748E2,-5.6239254E1,3.1745582E0,8.616771E1,2.0885674E2,-6.728401E1,-4.116264E1,-1.0246021E1,2.590014E1,6.2496376E1,1.13949715E2,1.8264839E2,2.8931296E2,-7.1465675E1,-6.0797283E1,-4.8325745E1,-3.4938576E1,-1.6671974E1,5.349378E-1,3.0334888E1,8.689368E0,6.81079E1,4.0715023E1,9.9340195E1,1.2723521E2,1.6622362E2,2.1522575E2,1.2229687E2,2.982602E2,-7.2236336E1,-6.1912697E1,-6.313686E1,-5.0865696E1,-4.4761078E1,-5.4447056E1,-3.1997934E1,-4.340761E1,-1.355209E1,-2.8816042E1,3.7190862E0,-1.3267142E1,2.390761E1,3.977628E1,4.0066087E-1,2.0250835E1,6.007489E1,7.909551E1,2.9923825E2,3.9007317E1,2.1024887E1,9.855785E1,1.423716E2,1.11853195E2,1.7789345E2,1.2976529E2,2.2113797E2,1.3580428E2,9.353439E0,4.3936398E1,2.726077E2,3.5081158E2,-3.7117898E0,-3.5073564E0,-3.118201E0,1.9386717E0,-2.8583617E0,-3.2375073E0,-2.5994916E0,3.608518E0,-2.1489246E0,-2.5838182E0,-2.795863E0,-2.429979E0,-1.7318655E0,-1.3113359E0,-1.8334509E0,-2.325279E0,-8.9996034E-1,-4.2308232E-1,-1.7354071E0,-1.074263E0,2.815725E-2,4.4316146E-1,-1.4991924E-1,-8.5764056E-1,1.3774259E0,6.8281996E-1,2.0724137E0,7.0595264E-1,5.563606E-1,-3.8709065E-1,-1.1372573E0,1.1043383E0,5.70126E-1,3.0330255E0,3.9787023E0,-1.675668E0,1.4638308E0,2.0979038E1,4.2782792E-1,2.1720612E0,5.042909E0,1.3629521E0,7.9001017E0,6.4154677E0,5.067016E0,6.648179E0,7.9636683E0,9.566685E0,6.9485717E0,4.2388996E-1,5.089092E0,1.1166605E1,3.9719262E0,1.1046035E1,5.7175374E0,-1.7632617E0,1.2388198E1,1.4746162E1,1.6026667E1,2.1491465E1],"categories":[],"categories_nodes":[],"categories_segments":[],"categories_sizes":[],"default_left":[0,0,0,0,0,0,0,0,0,0,0,0,0,0,0,0,0,0,0,0,0,0,0,0,0,0,0,0,0,0,0,0,0,0,0,0,0,0,0,0,0,0,0,0,0,0,0,0,0,0,0,0,0,0,0,0,0,0,0,0,0,0,0,0,0,0,0,0,0,0,0,0,0,0,0,0,0,0,0,0,0,0,0,0,0,0,0,0,0,0,0,0,0,0,0,0,0,0,0,0,0,0,0,0,0,0,0,0,0,0,0,0,0,0,0,0,0,0,0,0,0,0,0],"id":3,"left_children":[1,3,5,7,9,11,13,15,17,19,21,23,25,27,29,31,33,35,37,39,41,43,45,47,49,51,53,55,57,59,61,63,65,67,69,71,73,75,77,79,81,83,85,87,89,91,93,95,97,99,101,-1,103,105,107,109,111,113,115,-1,117,119,121,-1,-1,-1,-1,-1,-1,-1,-1,-1,-1,-1,-1,-1,-1,-1,-1,-1,-1,-1,-1,-1,-1,-1,-1,-1,-1,-1,-1,-1,-1,-1,-1,-1,-1,-1,-1,-1,-1,-1,-1,-1,-1,-1,-1,-1,-1,-1,-1,-1,-1,-1,-1,-1,-1,-1,-1,-1,-1,-1,-1],"loss_changes":[9.0397656E7,1.7684936E7,1.4411616E7,1.926332E6,2.6927215E6,2.829268E6,2.54498E6,1.76986E5,2.16816E5,3.845707E5,2.49931E5,2.82136E5,3.7225E5,4.62914E5,4.13318E5,2.541E4,5.7829E4,4.72265E4,6.401E4,1.3138425E5,9.119723E4,1.5718775E5,6.4485223E4,1.58713E5,2.0023906E5,1.96996E5,2.25054E5,2.42406E5,1.15061E5,7.8065375E4,2.88568E5,1.0458E4,1.6505125E4,1.6734E4,7.3736375E4,1.55795E4,4.444E3,2.8840375E4,1.2365125E4,6.253175E4,2.9921812E4,2.736656E4,1.5470047E4,5.75875E4,4.463E4,3.4411023E4,2.2683812E4,2.9921E4,4.4645E4,8.517966E4,6.4165812E4,0E0,1.52734E5,9.3582E4,1.014855E5,8.7147E4,1.7189325E5,5.2167E4,9.759403E4,0E0,5.4224977E4,3.5591E4,7.7552E4,0E0,0E0,0E0,0E0,0E0,0E0,0E0,0E0,0E0,0E0,0E0,0E0,0E0,0E0,0E0,0E0,0E0,0E0,0E0,0E0,0E0,0E0,0E0,0E0,0E0,0E0,0E0,0E0,0E0,0E0,0E0,0E0,0E0,0E0,0E0,0E0,0E0,0E0,0E0,0E0,0E0,0E0,0E0,0E0,0E0,0E0,0E0,0E0,0E0,0E0,0E0,0E0,0E0,0E0,0E0,0E0,0E0,0E0,0E0,0E0],"parents":[2147483647,0,0,1,1,2,2,3,3,4,4,5,5,6,6,7,7,8,8,9,9,10,10,11,11,12,12,13,13,14,14,15,15,16,16,17,17,18,18,19,19,20,20,21,21,22,22,23,23,24,24,25,25,26,26,27,27,28,28,29,29,30,30,31,31,32,32,33,33,34,34,35,35,36,36,37,37,38,38,39,39,40,40,41,41,42,42,43,43,44,44,45,45,46,46,47,47,48,48,49,49,50,50,52,52,53,53,54,54,55,55,56,56,57,57,58,58,60,60,61,61,62,62],"right_children":[2,4,6,8,10,12,14,16,18,20,22,24,26,28,30,32,34,36,38,40,42,44,46,48,50,52,54,56,58,60,62,64,66,68,70,72,74,76,78,80,82,84,86,88,90,92,94,96,98,100,102,-1,104,106,108,110,112,114,116,-1,118,120,122,-1,-1,-1,-1,-1,-1,-1,-1,-1,-1,-1,-1,-1,-1,-1,-1,-1,-1,-1,-1,-1,-1,-1,-1,-1,-1,-1,-1,-1,-1,-1,-1,-1,-1,-1,-1,-1,-1,-1,-1,-1,-1,-1,-1,-1,-1,-1,-1,-1,-1,-1,-1,-1,-1,-1,-1,-1,-1,-1,-1],"split_conditions":[1.54E2,6.3E1,2.86E2,3.1E1,1.1E2,2.04E2,4.11E2,1.9E1,4.5E1,9E1,1E0,1E0,2.35E2,3.49E2,-1.1E1,1E0,1E0,1E0,1E0,1E0,1E0,1.34E2,1.34E2,1.79E2,-2.3E1,-2.3E1,2.68E0,5.81E0,1.386E1,2.23E0,4.6516666E2,1.3E1,2.12E2,3.13E0,2.85E2,1E0,1.7E1,5.7E1,4.92E0,7.7E1,7.7E1,1.01E2,3.12E0,1.29E2,1.88E2,4.02E0,1.002E3,1.04333336E2,3.22E2,-2.4E1,-1.4E1,2.1024887E1,1E0,1.2246469E-16,1.6E1,9E0,1E0,-1.3E1,1.024E3,9.353439E0,2.27E2,1.3E1,5E0,-3.7117898E0,-3.5073564E0,-3.118201E0,1.9386717E0,-2.8583617E0,-3.2375073E0,-2.5994916E0,3.608518E0,-2.1489246E0,-2.5838182E0,-2.795863E0,-2.429979E0,-1.7318655E0,-1.3113359E0,-1.8334509E0,-2.325279E0,-8.9996034E-1,-4.2308232E-1,-1.7354071E0,-1.074263E0,2.815725E-2,4.4316146E-1,-1.4991924E-1,-8.5764056E-1,1.3774259E0,6.8281996E-1,2.0724137E0,7.0595264E-1,5.563606E-1,-3.8709065E-1,-1.1372573E0,1.1043383E0,5.70126E-1,3.0330255E0,3.9787023E0,-1.675668E0,1.4638308E0,2.0979038E1,4.2782792E-1,2.1720612E0,5.042909E0,1.3629521E0,7.9001017E0,6.4154677E0,5.067016E0,6.648179E0,7.9636683E0,9.566685E0,6.9485717E0,4.2388996E-1,5.089092E0,1.1166605E1,3.9719262E0,1.1046035E1,5.7175374E0,-1.7632617E0,1.2388198E1,1.4746162E1,1.6026667E1,2.1491465E1],"split_indices":[11,11,11,11,11,11,11,11,11,11,21,21,11,11,0,22,22,21,21,21,21,11,11,11,0,0,3,3,3,3,17,11,13,3,14,20,6,11,3,11,11,11,3,12,12,3,2,17,12,0,0,0,5,9,6,6,5,0,2,0,12,6,7,0,0,0,0,0,0,0,0,0,0,0,0,0,0,0,0,0,0,0,0,0,0,0,0,0,0,0,0,0,0,0,0,0,0,0,0,0,0,0,0,0,0,0,0,0,0,0,0,0,0,0,0,0,0,0,0,0,0,0,0],"split_type":[0,0,0,0,0,0,0,0,0,0,0,0,0,0,0,0,0,0,0,0,0,0,0,0,0,0,0,0,0,0,0,0,0,0,0,0,0,0,0,0,0,0,0,0,0,0,0,0,0,0,0,0,0,0,0,0,0,0,0,0,0,0,0,0,0,0,0,0,0,0,0,0,0,0,0,0,0,0,0,0,0,0,0,0,0,0,0,0,0,0,0,0,0,0,0,0,0,0,0,0,0,0,0,0,0,0,0,0,0,0,0,0,0,0,0,0,0,0,0,0,0,0,0],"sum_hessian":[2.5954E4,2.0411E4,5.543E3,1.1584E4,8.827E3,4.312E3,1.231E3,6.684E3,4.9E3,5.55E3,3.277E3,2.33E3,1.982E3,9.31E2,3E2,4.058E3,2.626E3,2.275E3,2.625E3,3.477E3,2.073E3,2.605E3,6.72E2,1.851E3,4.79E2,9.48E2,1.034E3,6.23E2,3.08E2,1.6E1,2.84E2,3.749E3,3.09E2,2.121E3,5.05E2,1.443E3,8.32E2,1.952E3,6.73E2,2.768E3,7.09E2,1.685E3,3.88E2,1.552E3,1.053E3,3.92E2,2.8E2,1.073E3,7.78E2,2E0,4.77E2,1E0,9.47E2,5.17E2,5.17E2,4.69E2,1.54E2,2.85E2,2.3E1,8E0,8E0,1.95E2,8.9E1,1.898E3,1.851E3,3.08E2,1E0,4.59E2,1.662E3,5.01E2,4E0,1.153E3,2.9E2,6.58E2,1.74E2,1.336E3,6.16E2,2.16E2,4.57E2,1.476E3,1.292E3,3.91E2,3.18E2,1.045E3,6.4E2,1.07E2,2.81E2,1.144E3,4.08E2,9.88E2,6.5E1,1.69E2,2.23E2,1.1E1,2.69E2,1.3E1,1.06E3,7.75E2,3E0,1E0,1E0,6.1E1,4.16E2,9.17E2,3E1,2.4E2,2.77E2,3.49E2,1.68E2,2.02E2,2.67E2,1.43E2,1.1E1,6E0,2.79E2,1.5E1,8E0,4E0,4E0,9.8E1,9.7E1,6.8E1,2.1E1],"tree_param":{"num_deleted":"0","num_feature":"25","num_nodes":"123","size_leaf_vector":"1"}},{"base_weights":[3.352034E-2,-3.0723349E1,1.0459852E2,-5.315944E1,2.356989E0,7.340704E1,1.9414891E2,-6.461671E1,-3.8690514E1,-9.271578E0,2.1519215E1,5.672776E1,1.0188376E2,1.6531923E2,2.7167804E2,-6.823273E1,-5.8077957E1,-4.452482E1,-3.0681091E1,-1.7411663E1,-1.7371384E0,2.5103224E1,-5.002502E0,6.054885E1,2.037176E1,1.06213524E2,5.8278015E1,1.536791E2,1.9659904E2,2.3254434E2,3.094929E2,-7.03465E1,-6.504085E1,-5.9630272E1,-5.1763218E1,-4.179886E1,-5.0211285E1,-2.5056297E1,-3.7294052E1,-1.5003823E1,-3.655638E1,3.0258327E0,-1.5965411E1,1.753202E1,3.41337E1,-2.1067217E1,4.407624E0,4.7996647E1,7.277484E1,3.4533806E1,-8.3754025E-2,9.502649E1,1.21995674E2,1.935846E1,7.4557846E1,1.6798122E2,1.3710863E2,2.0174742E2,1.1908252E2,2.3465538E2,1.1479385E1,2.8001184E2,3.373691E2,-3.6143754E0,-3.4405632E0,-3.2535875E0,-2.97995E-1,-3.1400793E0,-2.8705032E0,-2.5994048E0,5.483818E-2,-2.2979052E0,-1.820453E0,-2.8435912E0,-2.3889253E0,-1.4974952E0,-1.0846626E0,-1.6673974E0,-2.3407261E0,-3.1600985E-1,-8.4035677E-1,-1.64037E0,-2.4846961E0,-1.6910087E-1,4.2327163E-1,-5.0660247E-1,-1.5396799E0,1.2121485E0,4.0397197E-1,2.344026E0,1.5177115E0,-5.374908E-1,-2.265115E0,-3.3147535E-1,9.8615694E-1,2.746976E0,1.8874753E0,2.0454561E1,3.609209E0,-9.820219E-1,2.021816E0,2.582502E-1,-2.628148E0,5.148883E0,3.943894E0,6.3636627E0,4.920092E0,2.9248497E0,-7.146124E-1,4.4767556E0,1.9030516E0,9.968945E0,8.047694E0,7.058416E0,3.5250123E0,-8.911446E-1,1.0130221E1,-2.078241E0,6.4596567E0,1.1342049E0,1.1779391E1,3.5612233E0,-2.7002695E0,1.50026045E1,1.2247696E1,5.452367E0,1.7406248E1],"categories":[],"categories_nodes":[],"categories_segments":[],"categories_sizes":[],"default_left":[0,0,0,0,0,0,0,0,0,0,0,0,0,0,0,0,0,0,0,0,0,0,0,0,0,0,0,0,0,0,0,0,0,0,0,0,0,0,0,0,0,0,0,0,0,0,0,0,0,0,0,0,0,0,0,0,0,0,0,0,0,0,0,0,0,0,0,0,0,0,0,0,0,0,0,0,0,0,0,0,0,0,0,0,0,0,0,0,0,0,0,0,0,0,0,0,0,0,0,0,0,0,0,0,0,0,0,0,0,0,0,0,0,0,0,0,0,0,0,0,0,0,0,0,0,0,0],"id":4,"left_children":[1,3,5,7,9,11,13,15,17,19,21,23,25,27,29,31,33,35,37,39,41,43,45,47,49,51,53,55,57,59,61,63,65,67,69,71,73,75,77,79,81,83,85,87,89,91,93,95,97,99,101,103,105,107,109,111,113,115,117,119,121,123,125,-1,-1,-1,-1,-1,-1,-1,-1,-1,-1,-1,-1,-1,-1,-1,-1,-1,-1,-1,-1,-1,-1,-1,-1,-1,-1,-1,-1,-1,-1,-1,-1,-1,-1,-1,-1,-1,-1,-1,-1,-1,-1,-1,-1,-1,-1,-1,-1,-1,-1,-1,-1,-1,-1,-1,-1,-1,-1,-1,-1,-1,-1,-1,-1],"loss_changes":[8.339969E7,1.4872198E7,1.644892E7,1.976844E6,1.8048935E6,2.07127E6,3.356972E6,1.53554E5,2.453185E5,3.0913928E5,2.9089588E5,3.82185E5,2.98537E5,3.74666E5,5.3624E5,2.4328E4,2.0233E4,4.52105E4,8.193975E4,1.111455E5,1.7753492E5,1.8366312E5,5.527027E4,3.79704E5,7.6481555E4,2.47414E5,9.233E4,1.70116E5,9.4903E4,9.3441E4,7.4828E4,2.669E3,2.7525E3,9.7935E3,5.727125E3,4.4708E4,1.322725E4,1.9214375E4,3.683425E4,3.3623875E4,1.1667844E4,6.845122E4,5.6517312E4,9.292784E4,5.77375E4,3.3268824E4,3.9178844E4,8.57895E4,2.213615E5,5.067739E4,3.0295613E4,1.02686E5,6.281E4,6.010282E4,5.3440938E4,6.3448E4,9.3615E4,5.5924E4,3.9479E4,3.4977E4,1.5583683E4,9.74E2,2.10074E5,0E0,0E0,0E0,0E0,0E0,0E0,0E0,0E0,0E0,0E0,0E0,0E0,0E0,0E0,0E0,0E0,0E0,0E0,0E0,0E0,0E0,0E0,0E0,0E0,0E0,0E0,0E0,0E0,0E0,0E0,0E0,0E0,0E0,0E0,0E0,0E0,0E0,0E0,0E0,0E0,0E0,0E0,0E0,0E0,0E0,0E0,0E0,0E0,0E0,0E0,0E0,0E0,0E0,0E0,0E0,0E0,0E0,0E0,0E0,0E0,0E0,0E0,0E0,0E0],"parents":[2147483647,0,0,1,1,2,2,3,3,4,4,5,5,6,6,7,7,8,8,9,9,10,10,11,11,12,12,13,13,14,14,15,15,16,16,17,17,18,18,19,19,20,20,21,21,22,22,23,23,24,24,25,25,26,26,27,27,28,28,29,29,30,30,31,31,32,32,33,33,34,34,35,35,36,36,37,37,38,38,39,39,40,40,41,41,42,42,43,43,44,44,45,45,46,46,47,47,48,48,49,49,50,50,51,51,52,52,53,53,54,54,55,55,56,56,57,57,58,58,59,59,60,60,61,61,62,62],"right_children":[2,4,6,8,10,12,14,16,18,20,22,24,26,28,30,32,34,36,38,40,42,44,46,48,50,52,54,56,58,60,62,64,66,68,70,72,74,76,78,80,82,84,86,88,90,92,94,96,98,100,102,104,106,108,110,112,114,116,118,120,122,124,126,-1,-1,-1,-1,-1,-1,-1,-1,-1,-1,-1,-1,-1,-1,-1,-1,-1,-1,-1,-1,-1,-1,-1,-1,-1,-1,-1,-1,-1,-1,-1,-1,-1,-1,-1,-1,-1,-1,-1,-1,-1,-1,-1,-1,-1,-1,-1,-1,-1,-1,-1,-1,-1,-1,-1,-1,-1,-1,-1,-1,-1,-1,-1,-1],"split_conditions":[1.47E2,6.6333336E1,2.6533334E2,3.2E1,1.08E2,2.03E2,3.84E2,2.0333334E1,5.0666668E1,8.4333336E1,1.6E2,2.16E2,2.81E2,3.3033334E2,4.33E2,1.5E1,1E0,4.8E1,5.8E1,1.03E2,1.07E2,1.26666664E2,-3E0,1.6966667E2,1E0,2.3233333E2,2.28E2,1.2246469E-16,4.38E2,4.6516666E2,4.7966666E2,1.1E1,1E0,2.4E1,2.85E2,4.1E1,3.9333332E1,5.5333332E1,1E0,5.5E1,1.56E2,9.3333336E1,1E0,1.14E2,1.09E2,1.7691304E2,1.37E2,1.56E2,-2.3E1,-9E0,2.6645834E2,2.2E2,1E0,1E0,3.22E2,2.34E2,3.5441666E2,-1.6E1,-9.659258E-1,-1.5E1,-8E0,4E0,1.6586363E2,-3.6143754E0,-3.4405632E0,-3.2535875E0,-2.97995E-1,-3.1400793E0,-2.8705032E0,-2.5994048E0,5.483818E-2,-2.2979052E0,-1.820453E0,-2.8435912E0,-2.3889253E0,-1.4974952E0,-1.0846626E0,-1.6673974E0,-2.3407261E0,-3.1600985E-1,-8.4035677E-1,-1.64037E0,-2.4846961E0,-1.6910087E-1,4.2327163E-1,-5.0660247E-1,-1.5396799E0,1.2121485E0,4.0397197E-1,2.344026E0,1.5177115E0,-5.374908E-1,-2.265115E0,-3.3147535E-1,9.8615694E-1,2.746976E0,1.8874753E0,2.0454561E1,3.609209E0,-9.820219E-1,2.021816E0,2.582502E-1,-2.628148E0,5.148883E0,3.943894E0,6.3636627E0,4.920092E0,2.9248497E0,-7.146124E-1,4.4767556E0,1.9030516E0,9.968945E0,8.047694E0,7.058416E0,3.5250123E0,-8.911446E-1,1.0130221E1,-2.078241E0,6.4596567E0,1.1342049E0,1.1779391E1,3.5612233E0,-2.7002695E0,1.50026045E1,1.2247696E1,5.452367E0,1.7406248E1],"split_indices":[16,16,16,16,16,16,16,16,16,16,12,12,12,16,16,16,22,12,12,12,12,16,0,16,21,16,16,9,12,17,16,16,4,16,14,16,16,16,21,12,12,16,21,12,12,19,16,12,0,0,19,12,21,21,12,12,18,0,10,0,0,7,19,0,0,0,0,0,0,0,0,0,0,0,0,0,0,0,0,0,0,0,0,0,0,0,0,0,0,0,0,0,0,0,0,0,0,0,0,0,0,0,0,0,0,0,0,0,0,0,0,0,0,0,0,0,0,0,0,0,0,0,0,0,0,0,0],"split_type":[0,0,0,0,0,0,0,0,0,0,0,0,0,0,0,0,0,0,0,0,0,0,0,0,0,0,0,0,0,0,0,0,0,0,0,0,0,0,0,0,0,0,0,0,0,0,0,0,0,0,0,0,0,0,0,0,0,0,0,0,0,0,0,0,0,0,0,0,0,0,0,0,0,0,0,0,0,0,0,0,0,0,0,0,0,0,0,0,0,0,0,0,0,0,0,0,0,0,0,0,0,0,0,0,0,0,0,0,0,0,0,0,0,0,0,0,0,0,0,0,0,0,0,0,0,0,0],"sum_hessian":[2.593E4,2.0037E4,5.893E3,1.1939E4,8.098E3,4.372E3,1.521E3,6.661E3,5.278E3,5.04E3,3.058E3,2.759E3,1.613E3,1.111E3,4.1E2,4.283E3,2.378E3,3.051E3,2.227E3,2.422E3,2.618E3,2.694E3,3.64E2,2.496E3,2.63E2,1.466E3,1.47E2,8.14E2,2.97E2,2.05E2,2.05E2,2.564E3,1.719E3,1.902E3,4.76E2,2.068E3,9.83E2,1.206E3,1.021E3,2.153E3,2.69E2,1.962E3,6.56E2,1.467E3,1.227E3,1.34E2,2.3E2,1.234E3,1.262E3,1.55E2,1.08E2,8.62E2,6.04E2,4.4E1,1.03E2,4.32E2,3.82E2,2.77E2,2E1,2.03E2,2E0,1.05E2,1E2,1.112E3,1.452E3,1.718E3,1E0,7.72E2,1.13E3,4.74E2,2E0,1.163E3,9.05E2,2.57E2,7.26E2,4.88E2,7.18E2,7.25E2,2.96E2,3.71E2,1.782E3,2.12E2,5.7E1,9.01E2,1.061E3,4.72E2,1.84E2,8.57E2,6.1E2,2.78E2,9.49E2,9.5E1,3.9E1,1.34E2,9.6E1,7.33E2,5.01E2,1E0,1.261E3,1.5E1,1.4E2,9.9E1,9E0,5.74E2,2.88E2,4.9E2,1.14E2,2E1,2.4E1,7.2E1,3.1E1,7.4E1,3.58E2,3.59E2,2.3E1,1E0,2.76E2,1E0,1.9E1,1E0,2.02E2,1E0,1E0,6.2E1,4.3E1,5E0,9.5E1],"tree_param":{"num_deleted":"0","num_feature":"25","num_nodes":"127","size_leaf_vector":"1"}},{"base_weights":[-3.5569102E-3,-2.9193249E1,9.9916145E1,-5.0092865E1,2.4332342E0,7.42278E1,1.9863693E2,-6.1148197E1,-3.638472E1,-8.788204E0,2.0351896E1,5.5218513E1,1.03744576E2,1.7137976E2,2.7474445E2,-6.468677E1,-5.4852783E1,-4.249756E1,-2.918086E1,-1.5312857E1,-8.4451425E-1,2.2711716E1,-1.6002106E1,4.5119507E1,6.673604E1,9.169911E1,1.22986206E2,1.5648892E2,2.0039421E2,2.5007367E2,3.219596E2,-3.3883493E0,-6.2683506E1,-5.0479347E1,-5.708041E1,-4.0653095E1,-5.0036495E1,-2.538643E1,-3.779976E1,-1.3140811E1,-3.1844961E1,4.154307E0,-1.3953871E1,1.7363018E1,3.2262066E1,-9.910714E0,-4.9268032E1,5.1591793E1,2.1982622E1,1.9943197E1,6.618517E1,1.0193662E2,6.730658E1,1.1217432E2,1.4232661E2,1.6144707E2,7.212082E1,2.0331035E2,2.313205E1,1.1058499E0,2.5104005E2,1.1657739E2,3.2887088E2,-3.0124893E0,-3.1972814E0,-2.3512793E0,-2.7888548E0,-3.0043204E0,-2.7505834E0,-2.2304382E0,-1.7955939E0,-2.7256684E0,-2.3399332E0,-1.5007956E0,-1.0858864E0,-1.6749514E0,-2.3117735E0,-8.5465205E-1,-4.2326164E-1,-1.4401517E0,-2.6277952E0,6.635246E0,1.9561708E-1,-4.299503E-1,-1.4628568E0,1.2574842E0,4.4201237E-1,1.7690257E0,4.770238E-1,-2.282917E0,-1.8109597E-1,-2.9073746E0,-2.7694333E-1,2.7535424E0,1.8110402E0,1.3904746E0,-9.0485495E-1,3.5300012E0,1.5667237E0,5.321074E0,4.1067047E0,3.6640954E0,-1.3048782E0,5.726941E0,2.7509751E0,9.809391E0,6.86292E0,8.179815E0,3.2663689E0,4.7575183E0,1.002584E0,1.0321688E1,2.243401E0,-2.0867183E0,3.2999425E0,1.1617989E1,1.3454528E1,7.036322E0,4.995304E-1,1.9096312E1,1.4639719E1],"categories":[],"categories_nodes":[],"categories_segments":[],"categories_sizes":[],"default_left":[0,0,0,0,0,0,0,0,0,0,0,0,0,0,0,0,0,0,0,0,0,0,0,0,0,0,0,0,0,0,0,0,0,0,0,0,0,0,0,0,0,0,0,0,0,0,0,0,0,0,0,0,0,0,0,0,0,0,0,0,0,0,0,0,0,0,0,0,0,0,0,0,0,0,0,0,0,0,0,0,0,0,0,0,0,0,0,0,0,0,0,0,0,0,0,0,0,0,0,0,0,0,0,0,0,0,0,0,0,0,0,0,0,0,0,0,0,0,0,0,0],"id":5,"left_children":[1,3,5,7,9,11,13,15,17,19,21,23,25,27,29,31,33,35,37,39,41,43,45,47,49,51,53,55,57,59,61,-1,63,65,67,69,71,73,75,77,79,81,83,85,87,89,91,93,95,-1,97,99,101,103,105,107,109,111,113,-1,115,117,119,-1,-1,-1,-1,-1,-1,-1,-1,-1,-1,-1,-1,-1,-1,-1,-1,-1,-1,-1,-1,-1,-1,-1,-1,-1,-1,-1,-1,-1,-1,-1,-1,-1,-1,-1,-1,-1,-1,-1,-1,-1,-1,-1,-1,-1,-1,-1,-1,-1,-1,-1,-1,-1,-1,-1,-1,-1,-1],"loss_changes":[7.601018E7,1.3331454E7,1.4927212E7,1.838176E6,1.613992E6,2.618504E6,2.475476E6,1.46174E5,2.37611E5,2.5581906E5,2.6553688E5,3.28139E5,4.131E5,3.5662E5,2.91068E5,2.2266E4,2.07435E4,3.8736E4,8.0571E4,9.68935E4,1.4599622E5,1.4773062E5,3.7809875E4,2.2648375E5,2.16567E5,2.75322E5,1.30827E5,2.38505E5,1.50891E5,4.1591E4,1.12122E5,0E0,4.186E3,1.250875E4,6.638E3,4.267775E4,5.74025E3,2.8798625E4,2.602375E4,4.4149375E4,1.8268625E4,4.9652832E4,5.0145766E4,1.2341375E5,7.3423625E4,3.6028957E4,1.0938383E4,6.148175E4,7.8505375E4,0E0,2.0196E5,6.1775E4,1.8999912E5,5.5188E4,4.0771E4,1.05826E5,4.006158E4,1.37222E5,1.9438113E4,0E0,9.295E3,1.1463906E4,8.3408E4,0E0,0E0,0E0,0E0,0E0,0E0,0E0,0E0,0E0,0E0,0E0,0E0,0E0,0E0,0E0,0E0,0E0,0E0,0E0,0E0,0E0,0E0,0E0,0E0,0E0,0E0,0E0,0E0,0E0,0E0,0E0,0E0,0E0,0E0,0E0,0E0,0E0,0E0,0E0,0E0,0E0,0E0,0E0,0E0,0E0,0E0,0E0,0E0,0E0,0E0,0E0,0E0,0E0,0E0,0E0,0E0,0E0,0E0],"parents":[2147483647,0,0,1,1,2,2,3,3,4,4,5,5,6,6,7,7,8,8,9,9,10,10,11,11,12,12,13,13,14,14,15,15,16,16,17,17,18,18,19,19,20,20,21,21,22,22,23,23,24,24,25,25,26,26,27,27,28,28,29,29,30,30,32,32,33,33,34,34,35,35,36,36,37,37,38,38,39,39,40,40,41,41,42,42,43,43,44,44,45,45,46,46,47,47,48,48,50,50,51,51,52,52,53,53,54,54,55,55,56,56,57,57,58,58,60,60,61,61,62,62],"right_children":[2,4,6,8,10,12,14,16,18,20,22,24,26,28,30,32,34,36,38,40,42,44,46,48,50,52,54,56,58,60,62,-1,64,66,68,70,72,74,76,78,80,82,84,86,88,90,92,94,96,-1,98,100,102,104,106,108,110,112,114,-1,116,118,120,-1,-1,-1,-1,-1,-1,-1,-1,-1,-1,-1,-1,-1,-1,-1,-1,-1,-1,-1,-1,-1,-1,-1,-1,-1,-1,-1,-1,-1,-1,-1,-1,-1,-1,-1,-1,-1,-1,-1,-1,-1,-1,-1,-1,-1,-1,-1,-1,-1,-1,-1,-1,-1,-1,-1,-1,-1,-1],"split_conditions":[1.47E2,6.7333336E1,2.8333334E2,3.2E1,1.08E2,2.06E2,4.0533334E2,2.0333334E1,5E1,8.7333336E1,1.79E2,1.7333333E2,2.4533333E2,3.45E2,4.7966666E2,1.2666667E1,-5E-1,5.6E1,6.6E1,1.03E2,1.07E2,1.31E2,1.46E2,1.76E2,-2.3E1,2.34E2,1.6E1,3.91E2,4.38E2,2.965E2,-1.1E1,-3.3883493E0,8.95E0,1E0,2.4E1,4.1E1,4.2333332E1,5.6333332E1,1E0,7.7333336E1,1.81E2,4.8E1,1E0,1.14E2,1.51E2,9.2E1,9.659258E-1,1E0,1.79E2,1.9943197E1,2.2E2,1E0,2.58E2,2.93E2,1.05E2,3.67E2,1.028E1,1E0,3E0,1.1058499E0,1.2E1,-2.3E1,2E0,-3.0124893E0,-3.1972814E0,-2.3512793E0,-2.7888548E0,-3.0043204E0,-2.7505834E0,-2.2304382E0,-1.7955939E0,-2.7256684E0,-2.3399332E0,-1.5007956E0,-1.0858864E0,-1.6749514E0,-2.3117735E0,-8.5465205E-1,-4.2326164E-1,-1.4401517E0,-2.6277952E0,6.635246E0,1.9561708E-1,-4.299503E-1,-1.4628568E0,1.2574842E0,4.4201237E-1,1.7690257E0,4.770238E-1,-2.282917E0,-1.8109597E-1,-2.9073746E0,-2.7694333E-1,2.7535424E0,1.8110402E0,1.3904746E0,-9.0485495E-1,3.5300012E0,1.5667237E0,5.321074E0,4.1067047E0,3.6640954E0,-1.3048782E0,5.726941E0,2.7509751E0,9.809391E0,6.86292E0,8.179815E0,3.2663689E0,4.7575183E0,1.002584E0,1.0321688E1,2.243401E0,-2.0867183E0,3.2999425E0,1.1617989E1,1.3454528E1,7.036322E0,4.995304E-1,1.9096312E1,1.4639719E1],"split_indices":[16,16,16,16,16,16,16,16,16,16,12,16,16,16,16,16,9,12,12,12,12,16,11,12,0,12,6,12,11,17,0,0,3,21,16,16,16,16,21,16,12,11,21,12,11,11,9,21,11,0,12,21,11,11,13,11,3,5,8,0,6,0,8,0,0,0,0,0,0,0,0,0,0,0,0,0,0,0,0,0,0,0,0,0,0,0,0,0,0,0,0,0,0,0,0,0,0,0,0,0,0,0,0,0,0,0,0,0,0,0,0,0,0,0,0,0,0,0,0,0,0],"split_type":[0,0,0,0,0,0,0,0,0,0,0,0,0,0,0,0,0,0,0,0,0,0,0,0,0,0,0,0,0,0,0,0,0,0,0,0,0,0,0,0,0,0,0,0,0,0,0,0,0,0,0,0,0,0,0,0,0,0,0,0,0,0,0,0,0,0,0,0,0,0,0,0,0,0,0,0,0,0,0,0,0,0,0,0,0,0,0,0,0,0,0,0,0,0,0,0,0,0,0,0,0,0,0,0,0,0,0,0,0,0,0,0,0,0,0,0,0,0,0,0,0],"sum_hessian":[2.6059E4,2.0168E4,5.891E3,1.2143E4,8.025E3,4.676E3,1.215E3,6.72E3,5.423E3,4.935E3,3.09E3,2.846E3,1.83E3,8.97E2,3.18E2,4.296E3,2.424E3,2.931E3,2.492E3,2.709E3,2.226E3,2.902E3,1.88E2,1.519E3,1.327E3,1.129E3,7.01E2,5.97E2,3E2,2.13E2,1.05E2,1.68E3,2.616E3,8.26E2,1.598E3,2.36E3,5.71E2,1.733E3,7.59E2,2.396E3,3.13E2,1.612E3,6.14E2,1.862E3,1.04E3,1.6E2,2.8E1,1.186E3,3.33E2,1E0,1.326E3,7.93E2,3.36E2,4.54E2,2.47E2,5.63E2,3.4E1,2.95E2,5E0,1E0,2.12E2,4E0,1.01E2,9.1E2,1.706E3,5.06E2,3.2E2,6.4E2,9.58E2,1.282E3,1.078E3,2.33E2,3.38E2,7.63E2,9.7E2,5.06E2,2.53E2,1.297E3,1.099E3,2.75E2,3.8E1,2E0,1.61E3,4.56E2,1.58E2,9.72E2,8.9E2,9.14E2,1.26E2,2.3E1,1.37E2,2.3E1,5E0,9.65E2,2.21E2,2.91E2,4.2E1,1.176E3,1.5E2,6.43E2,1.5E2,3.16E2,2E1,4.35E2,1.9E1,1.8E1,2.29E2,5.5E2,1.3E1,2.3E1,1.1E1,2.89E2,6E0,2E0,3E0,1.11E2,1.01E2,3E0,1E0,3.7E1,6.4E1],"tree_param":{"num_deleted":"0","num_feature":"25","num_nodes":"121","size_leaf_vector":"1"}},{"base_weights":[8.017505E-2,-2.7527948E1,9.6136314E1,-4.887874E1,9.7030956E-1,6.978051E1,1.8431401E2,-5.8675053E1,-3.68342E1,-1.152453E1,1.7198633E1,5.0424484E1,9.269335E1,1.5536856E2,2.4975447E2,-6.2584778E1,-5.4167698E1,-4.2423645E1,-3.0718767E1,-1.7069902E1,-3.5729818E0,7.871741E0,2.4352144E1,5.4068394E1,1.1193414E1,7.98675E1,1.0539036E2,1.4463051E2,1.775895E2,2.1494789E2,2.829955E2,-3.2628267E0,-6.1247227E1,-5.5648796E1,-4.717279E1,-3.9950718E1,-4.8041813E1,-2.710497E1,-3.841421E1,-1.4708204E1,-3.43005E1,-5.4682817E-2,-1.7788193E1,1.4386467E1,-7.1905227E0,2.8641302E1,1.2310344E0,4.37578E1,6.329336E1,1.7949606E1,-2.7525396E1,8.789728E1,5.0620705E1,1.1001689E2,6.579831E1,1.4980757E2,9.674784E1,2.1026163E2,1.603565E2,2.1704567E2,3.4470723E0,1.651668E2,2.8821777E2,-3.0833166E0,-2.77844E0,-2.8733304E0,-2.6167881E0,-2.390728E0,2.3864694E0,-2.1098094E0,-1.6768025E0,-2.6179063E0,-2.2368329E0,-1.5316395E0,-1.1172726E0,-2.1698368E0,-1.6893386E0,-9.04544E-1,-4.8954964E-1,-1.5474641E0,-2.605832E0,5.845733E0,-1.7371899E-2,-2.551261E-1,-1.1417733E0,4.182538E0,6.6287106E-1,-1.7907235E-1,-1.7867765E0,1.8176888E0,1.2409577E0,2.399143E-1,-2.1383371E0,2.3053458E0,3.5332832E-1,1.9444616E1,3.133871E0,3.6994943E-1,1.9643544E0,-2.1856754E0,5.4204905E-1,4.4198623E0,-1.6535753E0,2.894078E0,-1.7240603E0,5.1134305E0,6.332495E0,3.8455212E0,7.785427E-1,9.276861E0,7.2830315E0,5.518342E0,-1.4958214E0,-8.166981E-1,1.0637026E1,8.223281E0,2.1103504E0,1.0782036E0,1.0895982E1,3.181743E0,-2.9232125E0,1.2388387E1,8.2460576E-1,1.6034624E1,1.3180839E1],"categories":[],"categories_nodes":[],"categories_segments":[],"categories_sizes":[],"default_left":[0,0,0,0,0,0,0,0,0,0,0,0,0,0,0,0,0,0,0,0,0,0,0,0,0,0,0,0,0,0,0,0,0,0,0,0,0,0,0,0,0,0,0,0,0,0,0,0,0,0,0,0,0,0,0,0,0,0,0,0,0,0,0,0,0,0,0,0,0,0,0,0,0,0,0,0,0,0,0,0,0,0,0,0,0,0,0,0,0,0,0,0,0,0,0,0,0,0,0,0,0,0,0,0,0,0,0,0,0,0,0,0,0,0,0,0,0,0,0,0,0,0,0,0,0],"id":6,"left_children":[1,3,5,7,9,11,13,15,17,19,21,23,25,27,29,31,33,35,37,39,41,43,45,47,49,51,53,55,57,59,61,-1,63,65,67,69,71,73,75,77,79,81,83,85,87,89,91,93,95,97,99,101,103,105,107,109,111,113,115,117,119,121,123,-1,-1,-1,-1,-1,-1,-1,-1,-1,-1,-1,-1,-1,-1,-1,-1,-1,-1,-1,-1,-1,-1,-1,-1,-1,-1,-1,-1,-1,-1,-1,-1,-1,-1,-1,-1,-1,-1,-1,-1,-1,-1,-1,-1,-1,-1,-1,-1,-1,-1,-1,-1,-1,-1,-1,-1,-1,-1,-1,-1,-1,-1],"loss_changes":[6.8480776E7,1.2204547E7,1.338496E7,1.35085E6,1.7424008E6,1.964474E6,2.472908E6,1.0802E5,1.74597E5,2.1401675E5,2.4920775E5,3.437725E5,3.22494E5,1.94312E5,4.0776E5,8.079E3,2.7875E4,3.5398E4,6.73985E4,1.15878875E5,9.98257E4,1.5946092E5,2.0970938E5,2.06864E5,5.438196E4,2.33918E5,1.79232E5,1.40934E5,1.32943E5,8.8875E4,7.7924E4,0E0,1.971E3,1.1591E4,3.401375E4,2.55345E4,9.298875E3,2.7490375E4,1.6609875E4,4.1689E4,1.8925812E4,5.4864258E4,2.523861E4,8.757264E4,5.0455375E4,5.1687E4,5.2312984E4,8.96585E4,2.08463E5,3.9331062E4,1.9727348E4,5.1006E4,1.3855444E5,1.04327E5,5.963897E4,5.654E4,1.13704375E5,5.9083E4,8.91855E4,2.947E4,1.489928E4,1.31001125E5,7.0448E4,0E0,0E0,0E0,0E0,0E0,0E0,0E0,0E0,0E0,0E0,0E0,0E0,0E0,0E0,0E0,0E0,0E0,0E0,0E0,0E0,0E0,0E0,0E0,0E0,0E0,0E0,0E0,0E0,0E0,0E0,0E0,0E0,0E0,0E0,0E0,0E0,0E0,0E0,0E0,0E0,0E0,0E0,0E0,0E0,0E0,0E0,0E0,0E0,0E0,0E0,0E0,0E0,0E0,0E0,0E0,0E0,0E0,0E0,0E0,0E0,0E0,0E0],"parents":[2147483647,0,0,1,1,2,2,3,3,4,4,5,5,6,6,7,7,8,8,9,9,10,10,11,11,12,12,13,13,14,14,15,15,16,16,17,17,18,18,19,19,20,20,21,21,22,22,23,23,24,24,25,25,26,26,27,27,28,28,29,29,30,30,32,32,33,33,34,34,35,35,36,36,37,37,38,38,39,39,40,40,41,41,42,42,43,43,44,44,45,45,46,46,47,47,48,48,49,49,50,50,51,51,52,52,53,53,54,54,55,55,56,56,57,57,58,58,59,59,60,60,61,61,62,62],"right_children":[2,4,6,8,10,12,14,16,18,20,22,24,26,28,30,32,34,36,38,40,42,44,46,48,50,52,54,56,58,60,62,-1,64,66,68,70,72,74,76,78,80,82,84,86,88,90,92,94,96,98,100,102,104,106,108,110,112,114,116,118,120,122,124,-1,-1,-1,-1,-1,-1,-1,-1,-1,-1,-1,-1,-1,-1,-1,-1,-1,-1,-1,-1,-1,-1,-1,-1,-1,-1,-1,-1,-1,-1,-1,-1,-1,-1,-1,-1,-1,-1,-1,-1,-1,-1,-1,-1,-1,-1,-1,-1,-1,-1,-1,-1,-1,-1,-1,-1,-1,-1,-1,-1,-1,-1],"split_conditions":[1.4833333E2,6.3333332E1,2.77E2,3E1,1.01666664E2,1.9766667E2,3.84E2,1.7333334E1,4.6333332E1,8.4333336E1,1.19666664E2,2.16E2,2.28E2,3.3033334E2,4.33E2,1.1E1,1E0,4.6E1,6.2E1,1.01E2,1.07E2,1.19E2,1.61E2,1.68E2,1.96E2,2.3E2,2.93E2,3.49E2,3.22E2,4.6516666E2,-8.660254E-1,-3.2628267E0,1E0,2.4E1,3.09E2,4.1E1,3.9333332E1,5.4666668E1,5.6333332E1,7.5E1,1.7E2,5.5E1,2.67E0,8.8E1,1.24E2,1.13E2,1.56E2,1.77E2,-2.3E1,1.8E2,1.91E2,3.01E2,2.39E2,1.7E1,3.67E2,2.3E2,3.35E2,-1.6E1,4.85E2,-1.5E1,-8E0,4.02E0,-5E0,-3.0833166E0,-2.77844E0,-2.8733304E0,-2.6167881E0,-2.390728E0,2.3864694E0,-2.1098094E0,-1.6768025E0,-2.6179063E0,-2.2368329E0,-1.5316395E0,-1.1172726E0,-2.1698368E0,-1.6893386E0,-9.04544E-1,-4.8954964E-1,-1.5474641E0,-2.605832E0,5.845733E0,-1.7371899E-2,-2.551261E-1,-1.1417733E0,4.182538E0,6.6287106E-1,-1.7907235E-1,-1.7867765E0,1.8176888E0,1.2409577E0,2.399143E-1,-2.1383371E0,2.3053458E0,3.5332832E-1,1.9444616E1,3.133871E0,3.6994943E-1,1.9643544E0,-2.1856754E0,5.4204905E-1,4.4198623E0,-1.6535753E0,2.894078E0,-1.7240603E0,5.1134305E0,6.332495E0,3.8455212E0,7.785427E-1,9.276861E0,7.2830315E0,5.518342E0,-1.4958214E0,-8.166981E-1,1.0637026E1,8.223281E0,2.1103504E0,1.0782036E0,1.0895982E1,3.181743E0,-2.9232125E0,1.2388387E1,8.2460576E-1,1.6034624E1,1.3180839E1],"split_indices":[16,16,16,16,16,16,16,16,16,16,16,12,16,16,16,16,22,12,12,12,12,12,12,16,11,12,12,12,12,17,10,0,22,16,14,16,16,16,16,16,12,11,3,11,11,12,11,11,0,16,16,11,11,6,12,12,11,0,12,0,0,3,0,0,0,0,0,0,0,0,0,0,0,0,0,0,0,0,0,0,0,0,0,0,0,0,0,0,0,0,0,0,0,0,0,0,0,0,0,0,0,0,0,0,0,0,0,0,0,0,0,0,0,0,0,0,0,0,0,0,0,0,0,0,0],"split_type":[0,0,0,0,0,0,0,0,0,0,0,0,0,0,0,0,0,0,0,0,0,0,0,0,0,0,0,0,0,0,0,0,0,0,0,0,0,0,0,0,0,0,0,0,0,0,0,0,0,0,0,0,0,0,0,0,0,0,0,0,0,0,0,0,0,0,0,0,0,0,0,0,0,0,0,0,0,0,0,0,0,0,0,0,0,0,0,0,0,0,0,0,0,0,0,0,0,0,0,0,0,0,0,0,0,0,0,0,0,0,0,0,0,0,0,0,0,0,0,0,0,0,0,0,0],"sum_hessian":[2.5821E4,2.0057E4,5.764E3,1.1466E4,8.591E3,4.439E3,1.325E3,6.321E3,5.145E3,4.854E3,3.737E3,2.408E3,2.031E3,9.21E2,4.04E2,3.378E3,2.943E3,2.685E3,2.46E3,2.859E3,1.995E3,1.623E3,2.114E3,2.203E3,2.05E2,1.014E3,1.017E3,6.26E2,2.95E2,2.01E2,2.03E2,1.111E3,2.267E3,2.423E3,5.2E2,1.87E3,8.15E2,1.677E3,7.83E2,2.516E3,3.43E2,1.6E3,3.95E2,1.133E3,4.9E2,1.783E3,3.31E2,1.043E3,1.16E3,1.75E2,3E1,7.94E2,2.2E2,9.09E2,1.08E2,5.63E2,6.3E1,9.8E1,1.97E2,1.99E2,2E0,1E1,1.93E2,2.102E3,1.65E2,1.554E3,8.69E2,5.17E2,3E0,1.381E3,4.89E2,3.47E2,4.68E2,9.6E2,7.17E2,3.73E2,4.1E2,1.489E3,1.027E3,2.91E2,5.2E1,3E0,1.597E3,1.13E2,2.82E2,1.7E1,1.116E3,4.36E2,5.4E1,5.88E2,1.195E3,3.07E2,2.4E1,9.8E2,6.3E1,1E0,1.159E3,1.18E2,5.7E1,2.1E1,9E0,7.91E2,3E0,2.03E2,1.7E1,6.25E2,2.84E2,8.8E1,2E1,5.4E1,5.09E2,5.7E1,6E0,1E0,9.7E1,1.9E2,7E0,1E0,1.98E2,1E0,1E0,6E0,4E0,7.8E1,1.15E2],"tree_param":{"num_deleted":"0","num_feature":"25","num_nodes":"125","size_leaf_vector":"1"}},{"base_weights":[-5.367254E-2,-2.7791693E1,8.493524E1,-4.70097E1,-2.3240755E0,6.0238834E1,1.6419089E2,-5.5447544E1,-3.513749E1,-1.2905928E1,1.2386109E1,4.2381165E1,8.171831E1,1.3670113E2,2.1922644E2,-5.8457382E1,-4.959127E1,-3.8677143E1,-2.8244522E1,-1.7902756E1,-5.8681974E0,1.5050009E1,-1.1976704E1,4.5707077E1,1.4567422E1,6.975007E1,9.317864E1,1.2527854E2,1.5387865E2,1.928843E2,2.5963715E2,-6.052419E1,-5.5990524E1,-5.1142803E1,-4.3556908E1,-3.6029915E1,-4.368151E1,-2.396062E1,-3.4967213E1,-1.5899639E1,-3.3242157E1,-1.1799598E0,-1.7720814E1,7.8503647E0,2.353803E1,-2.3684213E0,-2.73036E1,3.7251404E1,5.3509537E1,1.8649168E1,-4.3773373E1,7.503824E1,3.9124718E1,9.9075874E1,5.7179844E1,1.6971652E2,1.19808945E2,1.6037526E2,1.0393616E2,1.963316E2,-5.59785E1,1.38134E2,2.6681055E2,-3.1357143E0,-2.9773262E0,-2.837959E0,-2.6621947E0,-2.6113784E0,-2.279875E0,-2.2121718E0,2.2969766E0,-1.7021481E0,-2.048105E0,-2.1228092E0,-2.7125552E0,-1.1495452E0,-2.1890059E0,-1.5863866E0,-2.1136396E0,-9.750897E-1,-6.0743636E-1,-2.8989532E0,-1.5643495E0,2.6288903E0,-8.4963046E-2,-7.4090755E-1,-1.8625414E0,6.0838854E-1,-1.7667718E-1,1.8877541E0,9.848752E-1,1.180945E-1,-1.6394552E0,-2.11061E0,-4.106395E-1,2.6469014E0,1.5971273E0,3.2251873E0,2.3058915E0,6.1774272E-2,1.5864904E0,1.5679666E0,-2.7228591E0,3.792925E0,-1.4233141E0,2.7175426E0,-4.3368873E-1,4.5554667E0,5.7561827E0,3.3109074E0,-6.927354E-1,-1.5129169E0,8.665696E0,6.0992856E0,1.6946661E0,8.055282E0,-2.417853E0,5.742338E0,3.3011654E-1,1.1916915E1,9.33779E0,-7.962807E-1,-3.100516E0,8.143411E0,6.986033E-2,1.7135569E1,1.2691946E1],"categories":[],"categories_nodes":[],"categories_segments":[],"categories_sizes":[],"default_left":[0,0,0,0,0,0,0,0,0,0,0,0,0,0,0,0,0,0,0,0,0,0,0,0,0,0,0,0,0,0,0,0,0,0,0,0,0,0,0,0,0,0,0,0,0,0,0,0,0,0,0,0,0,0,0,0,0,0,0,0,0,0,0,0,0,0,0,0,0,0,0,0,0,0,0,0,0,0,0,0,0,0,0,0,0,0,0,0,0,0,0,0,0,0,0,0,0,0,0,0,0,0,0,0,0,0,0,0,0,0,0,0,0,0,0,0,0,0,0,0,0,0,0,0,0,0,0],"id":7,"left_children":[1,3,5,7,9,11,13,15,17,19,21,23,25,27,29,31,33,35,37,39,41,43,45,47,49,51,53,55,57,59,61,63,65,67,69,71,73,75,77,79,81,83,85,87,89,91,93,95,97,99,101,103,105,107,109,111,113,115,117,119,121,123,125,-1,-1,-1,-1,-1,-1,-1,-1,-1,-1,-1,-1,-1,-1,-1,-1,-1,-1,-1,-1,-1,-1,-1,-1,-1,-1,-1,-1,-1,-1,-1,-1,-1,-1,-1,-1,-1,-1,-1,-1,-1,-1,-1,-1,-1,-1,-1,-1,-1,-1,-1,-1,-1,-1,-1,-1,-1,-1,-1,-1,-1,-1,-1,-1],"loss_changes":[6.1238812E7,9.585512E6,1.2501364E7,1.116214E6,1.3114481E6,1.866458E6,2.266636E6,1.12078E5,1.12118E5,1.7221E5,2.2895306E5,2.4577E5,2.96899E5,1.79878E5,4.8643E5,1.855E4,1.85665E4,3.9004E4,4.46075E4,8.750319E4,1.131153E5,1.9402519E5,5.1183605E4,1.549615E5,6.892216E4,1.72944E5,2.33589E5,1.29147E5,1.13438E5,2.76084E5,1.33977E5,1.252E3,1.1475E3,8.2115E3,3.0357125E4,1.829375E4,1.136025E4,1.75785E4,1.31425625E4,3.4027875E4,1.4146406E4,4.0847387E4,3.2157578E4,8.462832E4,7.88645E4,3.1015795E4,3.779203E4,9.3662375E4,9.73885E4,6.10064E4,1.6959105E4,8.06925E4,1.1837283E5,1.13138E5,1.0428456E5,5.20045E4,9.8913E4,6.1606E4,5.1278312E4,7.8174E4,2.2040527E2,4.3739453E4,9.4164E4,0E0,0E0,0E0,0E0,0E0,0E0,0E0,0E0,0E0,0E0,0E0,0E0,0E0,0E0,0E0,0E0,0E0,0E0,0E0,0E0,0E0,0E0,0E0,0E0,0E0,0E0,0E0,0E0,0E0,0E0,0E0,0E0,0E0,0E0,0E0,0E0,0E0,0E0,0E0,0E0,0E0,0E0,0E0,0E0,0E0,0E0,0E0,0E0,0E0,0E0,0E0,0E0,0E0,0E0,0E0,0E0,0E0,0E0,0E0,0E0,0E0,0E0,0E0,0E0],"parents":[2147483647,0,0,1,1,2,2,3,3,4,4,5,5,6,6,7,7,8,8,9,9,10,10,11,11,12,12,13,13,14,14,15,15,16,16,17,17,18,18,19,19,20,20,21,21,22,22,23,23,24,24,25,25,26,26,27,27,28,28,29,29,30,30,31,31,32,32,33,33,34,34,35,35,36,36,37,37,38,38,39,39,40,40,41,41,42,42,43,43,44,44,45,45,46,46,47,47,48,48,49,49,50,50,51,51,52,52,53,53,54,54,55,55,56,56,57,57,58,58,59,59,60,60,61,61,62,62],"right_children":[2,4,6,8,10,12,14,16,18,20,22,24,26,28,30,32,34,36,38,40,42,44,46,48,50,52,54,56,58,60,62,64,66,68,70,72,74,76,78,80,82,84,86,88,90,92,94,96,98,100,102,104,106,108,110,112,114,116,118,120,122,124,126,-1,-1,-1,-1,-1,-1,-1,-1,-1,-1,-1,-1,-1,-1,-1,-1,-1,-1,-1,-1,-1,-1,-1,-1,-1,-1,-1,-1,-1,-1,-1,-1,-1,-1,-1,-1,-1,-1,-1,-1,-1,-1,-1,-1,-1,-1,-1,-1,-1,-1,-1,-1,-1,-1,-1,-1,-1,-1,-1,-1,-1,-1,-1,-1],"split_conditions":[1.3966667E2,6.0666668E1,2.6533334E2,3.1333334E1,9.8E1,1.8633333E2,3.64E2,2.0333334E1,5E1,8.1333336E1,1.56E2,1.99E2,2.1766667E2,3.0733334E2,4.33E2,1.4333333E1,1E0,1E0,5.8E1,9.9E1,9.8E1,1.17333336E2,1E0,1.5866667E2,2.02E2,2.3E2,2.74E2,2.3E2,3.91E2,4.85E2,-1E1,9.666667E0,1.8E1,1E0,2.85E2,4.8E1,7.8E1,6.8E1,1E0,7.0666664E1,3.7E1,6.5E1,1.51E2,1.14E2,1E2,1.43E2,1.25666664E2,1.24E2,1.56E2,1.6633333E2,2.06E2,2.69E2,2.16E2,1.7E1,2.81E2,2.13E2,3.35E2,4.85E2,3.67E2,-7.0710677E-1,-1.6E1,-1E0,-7E0,-3.1357143E0,-2.9773262E0,-2.837959E0,-2.6621947E0,-2.6113784E0,-2.279875E0,-2.2121718E0,2.2969766E0,-1.7021481E0,-2.048105E0,-2.1228092E0,-2.7125552E0,-1.1495452E0,-2.1890059E0,-1.5863866E0,-2.1136396E0,-9.750897E-1,-6.0743636E-1,-2.8989532E0,-1.5643495E0,2.6288903E0,-8.4963046E-2,-7.4090755E-1,-1.8625414E0,6.0838854E-1,-1.7667718E-1,1.8877541E0,9.848752E-1,1.180945E-1,-1.6394552E0,-2.11061E0,-4.106395E-1,2.6469014E0,1.5971273E0,3.2251873E0,2.3058915E0,6.1774272E-2,1.5864904E0,1.5679666E0,-2.7228591E0,3.792925E0,-1.4233141E0,2.7175426E0,-4.3368873E-1,4.5554667E0,5.7561827E0,3.3109074E0,-6.927354E-1,-1.5129169E0,8.665696E0,6.0992856E0,1.6946661E0,8.055282E0,-2.417853E0,5.742338E0,3.3011654E-1,1.1916915E1,9.33779E0,-7.962807E-1,-3.100516E0,8.143411E0,6.986033E-2,1.7135569E1,1.2691946E1],"split_indices":[16,16,16,16,16,16,16,16,16,16,12,12,16,16,16,16,22,21,12,12,12,16,21,16,11,12,12,12,12,11,0,16,6,23,14,12,12,11,21,16,11,11,12,12,12,11,16,12,12,16,12,11,11,6,11,11,11,11,11,9,0,1,0,0,0,0,0,0,0,0,0,0,0,0,0,0,0,0,0,0,0,0,0,0,0,0,0,0,0,0,0,0,0,0,0,0,0,0,0,0,0,0,0,0,0,0,0,0,0,0,0,0,0,0,0,0,0,0,0,0,0,0,0,0,0,0,0],"split_type":[0,0,0,0,0,0,0,0,0,0,0,0,0,0,0,0,0,0,0,0,0,0,0,0,0,0,0,0,0,0,0,0,0,0,0,0,0,0,0,0,0,0,0,0,0,0,0,0,0,0,0,0,0,0,0,0,0,0,0,0,0,0,0,0,0,0,0,0,0,0,0,0,0,0,0,0,0,0,0,0,0,0,0,0,0,0,0,0,0,0,0,0,0,0,0,0,0,0,0,0,0,0,0,0,0,0,0,0,0,0,0,0,0,0,0,0,0,0,0,0,0,0,0,0,0,0,0],"sum_hessian":[2.5975E4,1.9584E4,6.391E3,1.1161E4,8.423E3,4.874E3,1.517E3,6.522E3,4.639E3,4.899E3,3.524E3,2.663E3,2.211E3,1.014E3,5.03E2,4.302E3,2.22E3,3.062E3,1.577E3,2.864E3,2.035E3,3.177E3,3.47E2,2.378E3,2.85E2,1.085E3,1.126E3,6.14E2,4E2,3.08E2,1.95E2,2.328E3,1.974E3,1.76E3,4.6E2,2.008E3,1.054E3,9.66E2,6.11E2,2.535E3,3.29E2,1.459E3,5.76E2,1.72E3,1.457E3,2.14E2,1.33E2,1.144E3,1.234E3,2.67E2,1.8E1,9.24E2,1.61E2,9.66E2,1.6E2,6.4E1,5.5E2,3.52E2,4.8E1,3.04E2,4E0,1.2E1,1.83E2,6.99E2,1.629E3,1.527E3,4.47E2,1.465E3,2.95E2,4.57E2,3E0,1.437E3,5.71E2,9.49E2,1.05E2,9.23E2,4.3E1,4.27E2,1.84E2,1.291E3,1.244E3,2.2E1,3.07E2,1.3E1,1.446E3,5.03E2,7.3E1,1.247E3,4.73E2,3.08E2,1.149E3,1.86E2,2.8E1,7.4E1,5.9E1,2.87E2,8.57E2,4.93E2,7.41E2,1.15E2,1.52E2,2E0,1.6E1,9.17E2,7E0,1.22E2,3.9E1,6.5E2,3.16E2,1.42E2,1.8E1,1E0,6.3E1,5.36E2,1.4E1,3.51E2,1E0,4.3E1,5E0,5.2E1,2.52E2,1E0,3E0,1E1,2E0,2.3E1,1.6E2],"tree_param":{"num_deleted":"0","num_feature":"25","num_nodes":"127","size_leaf_vector":"1"}},{"base_weights":[1.997723E-1,-2.3495773E1,8.788614E1,-4.4158157E1,1.530193E0,6.9330826E1,1.7798898E2,-5.209091E1,-3.240311E1,-1.0486898E1,1.7882133E1,4.9387733E1,9.367207E1,1.5303435E2,2.2578897E2,-5.525293E1,-4.7232338E1,-3.7304794E1,-2.7500101E1,-1.6408491E1,-4.3876114E0,1.2808048E1,2.782103E1,5.6893177E1,3.9976933E1,7.983437E1,1.07689095E2,1.3547688E2,1.7107182E2,1.08450165E2,2.3448138E2,-5.5896053E1,-4.738924E1,-4.88548E1,-4.0225006E1,-3.9984104E1,-3.1816803E1,-2.3471197E1,-3.0833584E1,-1.1984184E1,-2.0335577E1,8.301124E-1,-7.9615145E0,1.7547426E1,7.7956414E0,2.4037542E1,3.7527336E1,2.6783334E2,5.6399467E1,2.0329874E1,5.0267323E1,1.92293E1,7.917155E1,1.1660391E2,8.391372E1,1.3831136E2,7.6436443E0,1.7592955E2,1.0727041E2,1.8005989E2,3.400657E1,2.0981897E2,2.805079E2,-2.4601767E0,-2.8136709E0,-2.3888528E0,1.8305298E0,-2.169558E0,-2.5181608E0,-2.0526738E0,5.5630527E0,-1.7657003E0,-2.0979226E0,-1.3011556E0,-1.7383479E0,-2.2297247E-1,-1.246065E0,-1.8703808E0,-1.3201654E0,3.660766E0,-6.1215466E-1,-1.5051953E0,-7.715048E-1,-9.082742E-2,6.2342775E-1,-8.4389156E-1,-1.6410176E-1,1.0889181E0,5.582066E-1,-3.4665844E-1,7.146824E-1,1.5601643E0,9.301347E-1,8.355724E-1,1.9863758E0,1.2238216E0,1.886368E1,2.552149E0,3.5198534E0,-2.889142E-1,1.3904274E0,2.2014787E0,3.009435E0,1.8083022E0,4.079113E0,5.0320506E0,6.3844643E0,3.3497002E0,4.928346E0,-2.7235284E0,6.986313E0,4.358172E0,-1.6695098E0,1.0378846E1,8.345473E0,9.29887E0,3.5351331E0,9.902438E0,3.0038478E0,4.2490826E0,-4.2377815E-1,9.1409457E-1,1.0584008E1,1.8391438E1,1.2789465E1],"categories":[],"categories_nodes":[],"categories_segments":[],"categories_sizes":[],"default_left":[0,0,0,0,0,0,0,0,0,0,0,0,0,0,0,0,0,0,0,0,0,0,0,0,0,0,0,0,0,0,0,0,0,0,0,0,0,0,0,0,0,0,0,0,0,0,0,0,0,0,0,0,0,0,0,0,0,0,0,0,0,0,0,0,0,0,0,0,0,0,0,0,0,0,0,0,0,0,0,0,0,0,0,0,0,0,0,0,0,0,0,0,0,0,0,0,0,0,0,0,0,0,0,0,0,0,0,0,0,0,0,0,0,0,0,0,0,0,0,0,0,0,0,0,0],"id":8,"left_children":[1,3,5,7,9,11,13,15,17,19,21,23,25,27,29,31,33,35,37,39,41,43,45,47,49,51,53,55,57,59,61,63,65,67,69,71,73,75,77,79,81,83,85,87,89,91,93,95,97,99,101,-1,103,105,107,109,111,113,115,117,119,121,123,-1,-1,-1,-1,-1,-1,-1,-1,-1,-1,-1,-1,-1,-1,-1,-1,-1,-1,-1,-1,-1,-1,-1,-1,-1,-1,-1,-1,-1,-1,-1,-1,-1,-1,-1,-1,-1,-1,-1,-1,-1,-1,-1,-1,-1,-1,-1,-1,-1,-1,-1,-1,-1,-1,-1,-1,-1,-1,-1,-1,-1,-1],"loss_changes":[5.3912044E7,1.056279E7,9.216472E6,1.041686E6,1.8156765E6,2.218204E6,1.089094E6,1E5,1.07387E5,1.9228981E5,1.9703E5,1.75648E5,3.9116E5,1.73805E5,3.01977E5,1.7783E4,2.8049E4,3.185625E4,2.9615375E4,4.67025E4,4.8956664E4,6.146178E4,4.7646562E4,1.30591E5,2.2561725E5,1.79831E5,2.0662E5,1.148915E5,7.5038E4,1.2181803E5,2.79411E5,6.648E3,1.1913E4,1.5443E4,6.756919E4,1.2441E4,1.1811875E4,2.8202312E4,3.4923125E4,2.8977328E4,6.805875E4,3.2920258E4,6.495014E4,3.5730562E4,1.20882484E5,3.6572812E4,1.6235844E4,7.06648E4,1.01151E5,7.572409E4,4.2836875E4,0E0,1.0487E5,1.18096E5,6.331225E4,9.29875E4,2.901442E4,4.5283E4,5.5926188E4,1.4002156E4,2.8872158E4,6.6715E4,1.239165E5,0E0,0E0,0E0,0E0,0E0,0E0,0E0,0E0,0E0,0E0,0E0,0E0,0E0,0E0,0E0,0E0,0E0,0E0,0E0,0E0,0E0,0E0,0E0,0E0,0E0,0E0,0E0,0E0,0E0,0E0,0E0,0E0,0E0,0E0,0E0,0E0,0E0,0E0,0E0,0E0,0E0,0E0,0E0,0E0,0E0,0E0,0E0,0E0,0E0,0E0,0E0,0E0,0E0,0E0,0E0,0E0,0E0,0E0,0E0,0E0,0E0,0E0],"parents":[2147483647,0,0,1,1,2,2,3,3,4,4,5,5,6,6,7,7,8,8,9,9,10,10,11,11,12,12,13,13,14,14,15,15,16,16,17,17,18,18,19,19,20,20,21,21,22,22,23,23,24,24,25,25,26,26,27,27,28,28,29,29,30,30,31,31,32,32,33,33,34,34,35,35,36,36,37,37,38,38,39,39,40,40,41,41,42,42,43,43,44,44,45,45,46,46,47,47,48,48,49,49,50,50,52,52,53,53,54,54,55,55,56,56,57,57,58,58,59,59,60,60,61,61,62,62],"right_children":[2,4,6,8,10,12,14,16,18,20,22,24,26,28,30,32,34,36,38,40,42,44,46,48,50,52,54,56,58,60,62,64,66,68,70,72,74,76,78,80,82,84,86,88,90,92,94,96,98,100,102,-1,104,106,108,110,112,114,116,118,120,122,124,-1,-1,-1,-1,-1,-1,-1,-1,-1,-1,-1,-1,-1,-1,-1,-1,-1,-1,-1,-1,-1,-1,-1,-1,-1,-1,-1,-1,-1,-1,-1,-1,-1,-1,-1,-1,-1,-1,-1,-1,-1,-1,-1,-1,-1,-1,-1,-1,-1,-1,-1,-1,-1,-1,-1,-1,-1,-1,-1,-1,-1,-1],"split_conditions":[1.54E2,6E1,3.1E2,3.1E1,1.03E2,2.09E2,4.11E2,1.9E1,4.5E1,8E1,1.34E2,4.02E0,2.48E2,3.49E2,-1E1,1E0,1E0,1.7E1,4.92E0,4.02E0,3.12E0,4.02E0,1.7E1,-2.3E1,1E0,-2.3E1,5.81E0,1E0,1.386E1,2.23E0,4.6516666E2,1.79E0,2.12E2,3.13E0,2.85E2,3.12E0,5.37E0,-8.660254E-1,1E0,-1.3E1,1E0,1.8E1,1E0,2E1,1E0,3.12E0,1.09166664E2,-2.4E1,1.91E2,-1E1,1.84E2,1.92293E1,-1.2E1,9E0,1E0,4.5E1,1E1,-5E-1,2.2616667E2,3.01E2,-5E0,2.6066666E2,-7E0,-2.4601767E0,-2.8136709E0,-2.3888528E0,1.8305298E0,-2.169558E0,-2.5181608E0,-2.0526738E0,5.5630527E0,-1.7657003E0,-2.0979226E0,-1.3011556E0,-1.7383479E0,-2.2297247E-1,-1.246065E0,-1.8703808E0,-1.3201654E0,3.660766E0,-6.1215466E-1,-1.5051953E0,-7.715048E-1,-9.082742E-2,6.2342775E-1,-8.4389156E-1,-1.6410176E-1,1.0889181E0,5.582066E-1,-3.4665844E-1,7.146824E-1,1.5601643E0,9.301347E-1,8.355724E-1,1.9863758E0,1.2238216E0,1.886368E1,2.552149E0,3.5198534E0,-2.889142E-1,1.3904274E0,2.2014787E0,3.009435E0,1.8083022E0,4.079113E0,5.0320506E0,6.3844643E0,3.3497002E0,4.928346E0,-2.7235284E0,6.986313E0,4.358172E0,-1.6695098E0,1.0378846E1,8.345473E0,9.29887E0,3.5351331E0,9.902438E0,3.0038478E0,4.2490826E0,-4.2377815E-1,9.1409457E-1,1.0584008E1,1.8391438E1,1.2789465E1],"split_indices":[11,11,11,11,11,11,11,11,11,11,11,3,11,11,0,22,22,6,3,3,3,3,6,0,22,0,3,5,3,3,17,3,13,3,14,3,3,9,22,1,22,6,22,1,22,3,17,0,11,0,11,0,0,6,22,13,0,9,19,13,1,17,0,0,0,0,0,0,0,0,0,0,0,0,0,0,0,0,0,0,0,0,0,0,0,0,0,0,0,0,0,0,0,0,0,0,0,0,0,0,0,0,0,0,0,0,0,0,0,0,0,0,0,0,0,0,0,0,0,0,0,0,0,0,0],"split_type":[0,0,0,0,0,0,0,0,0,0,0,0,0,0,0,0,0,0,0,0,0,0,0,0,0,0,0,0,0,0,0,0,0,0,0,0,0,0,0,0,0,0,0,0,0,0,0,0,0,0,0,0,0,0,0,0,0,0,0,0,0,0,0,0,0,0,0,0,0,0,0,0,0,0,0,0,0,0,0,0,0,0,0,0,0,0,0,0,0,0,0,0,0,0,0,0,0,0,0,0,0,0,0,0,0,0,0,0,0,0,0,0,0,0,0,0,0,0,0,0,0,0,0,0,0],"sum_hessian":[2.5945E4,2.0426E4,5.519E3,1.1188E4,9.238E3,4.578E3,9.41E2,6.678E3,4.51E3,5.325E3,3.913E3,2.518E3,2.06E3,6.21E2,3.2E2,4.039E3,2.639E3,2.252E3,2.258E3,2.701E3,2.624E3,2.592E3,1.321E3,1.398E3,1.12E3,1.04E3,1.02E3,3.19E2,3.02E2,2.3E1,2.97E2,3.728E3,3.11E2,2.138E3,5.01E2,1.509E3,7.43E2,1.026E3,1.232E3,1.272E3,1.429E3,1.067E3,1.557E3,1.331E3,1.261E3,9.53E2,3.68E2,2E0,1.396E3,3.86E2,7.34E2,1E0,1.039E3,7.39E2,2.81E2,3.12E2,7E0,2.79E2,2.3E1,1.1E1,1.2E1,1.97E2,1E2,2.06E2,3.522E3,3.1E2,1E0,4.69E2,1.669E3,4.99E2,2E0,4.54E2,1.055E3,2.54E2,4.89E2,7.3E1,9.53E2,4.93E2,7.39E2,3E0,1.269E3,4.76E2,9.53E2,8.7E2,1.97E2,5.35E2,1.022E3,7.99E2,5.32E2,3.86E2,8.75E2,4.09E2,5.44E2,3.6E1,3.32E2,1E0,1E0,1.013E3,3.83E2,8.6E1,3E2,4.54E2,2.8E2,5.6E1,9.83E2,3.07E2,4.32E2,1.33E2,1.48E2,2E0,3.1E2,2E0,5E0,5.7E1,2.22E2,6E0,1.7E1,9E0,2E0,5E0,7E0,2E0,1.95E2,1.9E1,8.1E1],"tree_param":{"num_deleted":"0","num_feature":"25","num_nodes":"125","size_leaf_vector":"1"}},{"base_weights":[-7.095248E-2,-2.5171165E1,7.653941E1,-4.3346985E1,-3.1358976E0,5.4484844E1,1.5421404E2,-5.097845E1,-3.3967743E1,-1.4013733E1,9.201308E0,3.6775757E1,7.4631004E1,1.2704281E2,2.0337796E2,-5.3706722E1,-4.723248E1,-3.858598E1,-2.924796E1,-1.1214061E1,-2.4437069E1,2.9201083E0,1.7078587E1,4.1605053E1,1.8748535E1,6.358372E1,8.665256E1,1.3008876E2,5.34021E1,1.7858296E2,2.3538159E2,-2.8037498E0,-5.2500523E1,-4.8887936E1,-4.3255527E1,-4.0939537E1,-3.3104836E1,-2.6031294E1,-3.5854782E1,-1.6687817E1,-7.285624E0,-1.9906437E1,-3.4936676E1,6.511157E0,-1.4451597E1,2.270626E1,5.799474E-1,4.2488914E1,-3.324276E1,2.4215582E1,-1.0252897E1,6.930118E1,3.125316E1,9.022455E1,4.5505615E1,1.1833634E2,1.451483E2,7.4591545E1,-5.389396E0,1.8139085E2,-3.2711182E0,2.3735847E2,1.5903478E1,-2.5153863E0,-2.6720185E0,-2.5231311E0,-2.3400283E0,-1.918951E0,-2.2926452E0,-1.7854416E0,-2.1669242E0,-1.6771656E0,-4.9254966E-1,-1.2125666E0,-1.57479E0,-1.6514119E0,-2.0706363E0,-4.9970683E-1,-1.0609682E0,-2.0199321E-1,-7.33685E-1,-1.3296914E0,-6.4732724E-1,-1.591865E0,-2.6288157E0,4.327085E-1,-2.0224646E-1,-5.5005115E-1,-2.4814456E0,1.2805045E0,4.3284526E-1,2.3931491E-1,-1.5226123E0,1.7709678E0,2.472822E0,-5.028092E-1,-3.0919375E0,1.5677005E0,6.397198E-1,-1.7496917E-2,-2.042307E0,1.8392088E1,3.4328353E0,2.189692E0,-7.65082E-1,4.1457744E0,5.200129E0,2.6998603E0,-1.433799E0,6.0351152E0,1.3079071E-1,7.714776E0,5.720137E0,2.5034857E0,6.4818697E0,3.3786614E0,-2.8367822E0,9.214265E0,4.6401324E0,1.0579011E1,1.2968636E1,-3.5278854E-1,1.5455494E0],"categories":[],"categories_nodes":[],"categories_segments":[],"categories_sizes":[],"default_left":[0,0,0,0,0,0,0,0,0,0,0,0,0,0,0,0,0,0,0,0,0,0,0,0,0,0,0,0,0,0,0,0,0,0,0,0,0,0,0,0,0,0,0,0,0,0,0,0,0,0,0,0,0,0,0,0,0,0,0,0,0,0,0,0,0,0,0,0,0,0,0,0,0,0,0,0,0,0,0,0,0,0,0,0,0,0,0,0,0,0,0,0,0,0,0,0,0,0,0,0,0,0,0,0,0,0,0,0,0,0,0,0,0,0,0,0,0,0,0,0,0,0,0],"id":9,"left_children":[1,3,5,7,9,11,13,15,17,19,21,23,25,27,29,31,33,35,37,39,41,43,45,47,49,51,53,55,57,59,61,-1,63,65,67,69,71,73,75,77,79,81,83,85,87,89,91,93,95,97,99,101,103,105,107,109,111,113,115,117,-1,119,121,-1,-1,-1,-1,-1,-1,-1,-1,-1,-1,-1,-1,-1,-1,-1,-1,-1,-1,-1,-1,-1,-1,-1,-1,-1,-1,-1,-1,-1,-1,-1,-1,-1,-1,-1,-1,-1,-1,-1,-1,-1,-1,-1,-1,-1,-1,-1,-1,-1,-1,-1,-1,-1,-1,-1,-1,-1,-1,-1,-1],"loss_changes":[4.987713E7,7.824609E6,1.0957028E7,7.64576E5,1.1854018E6,1.776469E6,1.864384E6,5.7772E4,1.036285E5,1.3670594E5,2.0474278E5,2.3044825E5,3.04193E5,1.9807E5,3.56316E5,6.789E3,1.43115E4,2.994075E4,4.9667625E4,7.9483625E4,4.6541312E4,1.438237E5,1.7045756E5,1.3994075E5,8.951319E4,2.231645E5,1.596255E5,1.3804E5,4.774083E4,2.08501E5,8.9944E4,0E0,1.996E3,3.4035E3,7.6385E3,1.969625E4,7.1536875E3,1.48475E4,1.08386875E4,4.6682344E4,5.1665414E4,3.205E4,1.4618344E4,4.324271E4,4.73999E4,5.562925E4,6.1234867E4,1.00211E5,1.5954215E4,3.824372E4,2.7252432E4,1.738795E5,1.0867842E5,9.4498E4,5.887114E4,1.360325E5,8.92185E4,3.1304203E4,4.5043742E4,5.572E4,0E0,6.6564E4,1.2517844E3,0E0,0E0,0E0,0E0,0E0,0E0,0E0,0E0,0E0,0E0,0E0,0E0,0E0,0E0,0E0,0E0,0E0,0E0,0E0,0E0,0E0,0E0,0E0,0E0,0E0,0E0,0E0,0E0,0E0,0E0,0E0,0E0,0E0,0E0,0E0,0E0,0E0,0E0,0E0,0E0,0E0,0E0,0E0,0E0,0E0,0E0,0E0,0E0,0E0,0E0,0E0,0E0,0E0,0E0,0E0,0E0,0E0,0E0,0E0,0E0],"parents":[2147483647,0,0,1,1,2,2,3,3,4,4,5,5,6,6,7,7,8,8,9,9,10,10,11,11,12,12,13,13,14,14,15,15,16,16,17,17,18,18,19,19,20,20,21,21,22,22,23,23,24,24,25,25,26,26,27,27,28,28,29,29,30,30,32,32,33,33,34,34,35,35,36,36,37,37,38,38,39,39,40,40,41,41,42,42,43,43,44,44,45,45,46,46,47,47,48,48,49,49,50,50,51,51,52,52,53,53,54,54,55,55,56,56,57,57,58,58,59,59,61,61,62,62],"right_children":[2,4,6,8,10,12,14,16,18,20,22,24,26,28,30,32,34,36,38,40,42,44,46,48,50,52,54,56,58,60,62,-1,64,66,68,70,72,74,76,78,80,82,84,86,88,90,92,94,96,98,100,102,104,106,108,110,112,114,116,118,-1,120,122,-1,-1,-1,-1,-1,-1,-1,-1,-1,-1,-1,-1,-1,-1,-1,-1,-1,-1,-1,-1,-1,-1,-1,-1,-1,-1,-1,-1,-1,-1,-1,-1,-1,-1,-1,-1,-1,-1,-1,-1,-1,-1,-1,-1,-1,-1,-1,-1,-1,-1,-1,-1,-1,-1,-1,-1,-1,-1,-1,-1],"split_conditions":[1.3966667E2,5.7666668E1,2.7133334E2,2.7666666E1,9.2666664E1,1.8633333E2,3.64E2,1.7333334E1,4.2333332E1,1E0,1.16E2,1E0,2.2066667E2,4.1E2,4.33E2,1.1E1,1.7E1,1E0,5.6E1,7.2E1,9.3E1,1.25E2,1.4E2,2.06E2,2.09E2,2.3E2,2.93E2,3.0733334E2,8E0,4.85E2,2.369E1,-2.8037498E0,1E0,2.2333334E1,6.26E0,3.13E0,1.4975E2,1E0,7.7E1,5.8E1,8.8E1,7.2E1,1.81E2,1E0,1.22E2,1E0,1.43E2,1.6066667E2,1.8866667E2,7.15E0,1.743E1,-2.3E1,2.2E2,1.6E1,2.81E2,3.35E2,1E0,7E0,3.66E2,4.85E2,-3.2711182E0,4.85E2,-1E1,-2.5153863E0,-2.6720185E0,-2.5231311E0,-2.3400283E0,-1.918951E0,-2.2926452E0,-1.7854416E0,-2.1669242E0,-1.6771656E0,-4.9254966E-1,-1.2125666E0,-1.57479E0,-1.6514119E0,-2.0706363E0,-4.9970683E-1,-1.0609682E0,-2.0199321E-1,-7.33685E-1,-1.3296914E0,-6.4732724E-1,-1.591865E0,-2.6288157E0,4.327085E-1,-2.0224646E-1,-5.5005115E-1,-2.4814456E0,1.2805045E0,4.3284526E-1,2.3931491E-1,-1.5226123E0,1.7709678E0,2.472822E0,-5.028092E-1,-3.0919375E0,1.5677005E0,6.397198E-1,-1.7496917E-2,-2.042307E0,1.8392088E1,3.4328353E0,2.189692E0,-7.65082E-1,4.1457744E0,5.200129E0,2.6998603E0,-1.433799E0,6.0351152E0,1.3079071E-1,7.714776E0,5.720137E0,2.5034857E0,6.4818697E0,3.3786614E0,-2.8367822E0,9.214265E0,4.6401324E0,1.0579011E1,1.2968636E1,-3.5278854E-1,1.5455494E0],"split_indices":[16,16,16,16,16,16,16,16,16,21,16,21,16,12,16,16,6,22,12,16,12,12,12,11,12,12,12,16,1,11,3,0,21,16,3,3,19,21,12,12,12,16,12,21,11,21,11,16,17,3,3,0,11,6,11,11,21,6,13,12,0,11,0,0,0,0,0,0,0,0,0,0,0,0,0,0,0,0,0,0,0,0,0,0,0,0,0,0,0,0,0,0,0,0,0,0,0,0,0,0,0,0,0,0,0,0,0,0,0,0,0,0,0,0,0,0,0,0,0,0,0,0,0],"split_type":[0,0,0,0,0,0,0,0,0,0,0,0,0,0,0,0,0,0,0,0,0,0,0,0,0,0,0,0,0,0,0,0,0,0,0,0,0,0,0,0,0,0,0,0,0,0,0,0,0,0,0,0,0,0,0,0,0,0,0,0,0,0,0,0,0,0,0,0,0,0,0,0,0,0,0,0,0,0,0,0,0,0,0,0,0,0,0,0,0,0,0,0,0,0,0,0,0,0,0,0,0,0,0,0,0,0,0,0,0,0,0,0,0,0,0,0,0,0,0,0,0,0,0],"sum_hessian":[2.5936E4,1.9536E4,6.4E3,1.0705E4,8.831E3,4.986E3,1.414E3,5.9E3,4.805E3,4.693E3,4.138E3,2.655E3,2.331E3,9.13E2,5.01E2,3.406E3,2.494E3,2.425E3,2.38E3,3.701E3,9.92E2,2.303E3,1.835E3,2.093E3,5.62E2,1.218E3,1.113E3,8.76E2,3.7E1,2.86E2,2.15E2,1.134E3,2.272E3,1.753E3,7.41E2,1.692E3,7.33E2,1.604E3,7.76E2,1.545E3,2.156E3,6.95E2,2.97E2,1.909E3,3.94E2,1.368E3,4.67E2,2.069E3,2.4E1,4.73E2,8.9E1,1.034E3,1.84E2,1.023E3,9E1,4.97E2,3.79E2,2.7E1,1E1,2.83E2,3E0,2.13E2,2E0,6.98E2,1.574E3,9.86E2,7.67E2,2.63E2,4.78E2,5.37E2,1.155E3,7.19E2,1.4E1,1.214E3,3.9E2,5.19E2,2.57E2,6.25E2,9.2E2,1.499E3,6.57E2,3.53E2,3.42E2,2.55E2,4.2E1,1.587E3,3.22E2,3.6E2,3.4E1,1.133E3,2.35E2,4.12E2,5.5E1,1.03E3,1.039E3,1.4E1,1E1,2.9E2,1.83E2,6.8E1,2.1E1,1E0,1.033E3,1.45E2,3.9E1,6.73E2,3.5E2,8.1E1,9E0,4.87E2,1E1,2.89E2,9E1,2E1,7E0,4E0,6E0,2.73E2,1E1,1.03E2,1.1E2,1E0,1E0],"tree_param":{"num_deleted":"0","num_feature":"25","num_nodes":"123","size_leaf_vector":"1"}},{"base_weights":[-2.3049955E-1,-2.3455748E1,7.434456E1,-4.0449802E1,-1.3613311E0,5.2200634E1,1.4255261E2,-4.8126446E1,-3.0840794E1,-1.2460877E1,9.816499E0,3.812448E1,7.200444E1,1.1696406E2,1.9249205E2,-5.117849E1,-4.467559E1,-3.595198E1,-2.6338383E1,-1.1041063E1,-2.8607573E1,1.1387562E1,-1.987476E1,4.0889854E1,3.9262261E0,7.8353355E1,5.065063E1,1.2443078E2,9.543172E1,1.7173944E2,2.2282608E2,-2.6926262E0,-5.0305275E1,-4.5735123E1,-3.9011497E1,-3.3770267E1,-4.0760624E1,-2.3097158E1,-3.211385E1,-1.5596156E1,-6.4013643E0,-2.4904985E1,-4.4903282E1,3.7552993E0,1.8748198E1,-2.9829166E1,2.0829873E0,3.3738216E1,5.0109077E1,8.694795E0,-4.037934E1,7.361505E1,9.6623474E1,5.9918064E1,1.8990051E1,1.1335609E2,1.4189755E2,1.0004996E2,1.8461805E1,1.7961049E2,1.17987755E2,9.887077E1,2.2806694E2,-2.5311725E0,-2.2760437E0,-2.3442295E0,-2.1476688E0,-1.9814821E0,6.6548444E-2,-1.8216841E0,-1.5360968E0,-2.1356514E0,-1.7555106E0,-1.3007258E0,-9.3041384E-1,-1.4762872E0,-1.8900257E0,-4.3779707E-1,-9.651548E-1,1.1292633E-1,-4.2625794E-1,-1.7668415E0,-1.0471257E0,-3.5360336E-1,-2.3013856E0,3.7493798E-1,-4.4394517E-1,1.5924277E0,7.8874564E-1,-9.031572E-1,-2.4418254E0,-1.3535479E-1,3.1489725E0,1.9531481E0,1.1813656E0,4.593286E0,2.3947446E0,5.908329E-1,-2.3559744E0,-2.3758712E-1,-2.449463E0,3.7794397E0,1.5090928E0,5.300777E0,4.010242E0,2.3707793E0,3.4638035E0,-6.254024E-1,2.2543426E0,7.1872215E0,5.345007E0,7.758841E0,6.335509E0,4.7013416E0,6.480394E0,2.2806318E0,-2.5196273E0,-5.730629E-2,9.049472E0,6.442579E0,-3.3096218E0,8.48409E-1,8.868987E0,1.009567E1,1.2633105E1],"categories":[],"categories_nodes":[],"categories_segments":[],"categories_sizes":[],"default_left":[0,0,0,0,0,0,0,0,0,0,0,0,0,0,0,0,0,0,0,0,0,0,0,0,0,0,0,0,0,0,0,0,0,0,0,0,0,0,0,0,0,0,0,0,0,0,0,0,0,0,0,0,0,0,0,0,0,0,0,0,0,0,0,0,0,0,0,0,0,0,0,0,0,0,0,0,0,0,0,0,0,0,0,0,0,0,0,0,0,0,0,0,0,0,0,0,0,0,0,0,0,0,0,0,0,0,0,0,0,0,0,0,0,0,0,0,0,0,0,0,0,0,0,0,0],"id":10,"left_children":[1,3,5,7,9,11,13,15,17,19,21,23,25,27,29,31,33,35,37,39,41,43,45,47,49,51,53,55,57,59,61,-1,63,65,67,69,71,73,75,77,79,81,83,85,87,89,91,93,95,97,99,101,103,105,107,109,111,113,115,117,119,121,123,-1,-1,-1,-1,-1,-1,-1,-1,-1,-1,-1,-1,-1,-1,-1,-1,-1,-1,-1,-1,-1,-1,-1,-1,-1,-1,-1,-1,-1,-1,-1,-1,-1,-1,-1,-1,-1,-1,-1,-1,-1,-1,-1,-1,-1,-1,-1,-1,-1,-1,-1,-1,-1,-1,-1,-1,-1,-1,-1,-1,-1,-1],"loss_changes":[4.4774572E7,7.401283E6,9.264868E6,8.20406E5,1.0635162E6,1.289592E6,1.899414E6,6.2929E4,1.12989E5,9.8285875E4,1.99455E5,2.5631525E5,2.5701E5,1.48419E5,2.81524E5,4.948E3,1.57035E4,2.292075E4,4.8602875E4,8.348616E4,1.9818344E4,2.2784494E5,4.7056055E4,1.63734E5,4.345101E4,1.21183E5,1.2913725E5,1.2648E5,9.09295E4,1.08271E5,1.09326E5,0E0,1.481E3,5.817E3,1.16735625E4,1.1863E4,6.421125E3,2.1673875E4,1.2792125E4,5.041675E4,3.6085625E4,1.1040703E4,2.3544219E3,9.4326766E4,7.993156E4,3.2216688E4,2.0006031E4,7.531175E4,9.6748E4,3.2792047E4,5.9022266E3,9.896E4,3.8067E4,3.6845625E4,8.440789E4,7.40945E4,3.72105E4,3.1609E4,3.220978E4,6.626E4,9.256675E4,6.1291062E4,7.3775E4,0E0,0E0,0E0,0E0,0E0,0E0,0E0,0E0,0E0,0E0,0E0,0E0,0E0,0E0,0E0,0E0,0E0,0E0,0E0,0E0,0E0,0E0,0E0,0E0,0E0,0E0,0E0,0E0,0E0,0E0,0E0,0E0,0E0,0E0,0E0,0E0,0E0,0E0,0E0,0E0,0E0,0E0,0E0,0E0,0E0,0E0,0E0,0E0,0E0,0E0,0E0,0E0,0E0,0E0,0E0,0E0,0E0,0E0,0E0,0E0,0E0,0E0],"parents":[2147483647,0,0,1,1,2,2,3,3,4,4,5,5,6,6,7,7,8,8,9,9,10,10,11,11,12,12,13,13,14,14,15,15,16,16,17,17,18,18,19,19,20,20,21,21,22,22,23,23,24,24,25,25,26,26,27,27,28,28,29,29,30,30,32,32,33,33,34,34,35,35,36,36,37,37,38,38,39,39,40,40,41,41,42,42,43,43,44,44,45,45,46,46,47,47,48,48,49,49,50,50,51,51,52,52,53,53,54,54,55,55,56,56,57,57,58,58,59,59,60,60,61,61,62,62],"right_children":[2,4,6,8,10,12,14,16,18,20,22,24,26,28,30,32,34,36,38,40,42,44,46,48,50,52,54,56,58,60,62,-1,64,66,68,70,72,74,76,78,80,82,84,86,88,90,92,94,96,98,100,102,104,106,108,110,112,114,116,118,120,122,124,-1,-1,-1,-1,-1,-1,-1,-1,-1,-1,-1,-1,-1,-1,-1,-1,-1,-1,-1,-1,-1,-1,-1,-1,-1,-1,-1,-1,-1,-1,-1,-1,-1,-1,-1,-1,-1,-1,-1,-1,-1,-1,-1,-1,-1,-1,-1,-1,-1,-1,-1,-1,-1,-1,-1,-1,-1,-1,-1,-1,-1,-1],"split_conditions":[1.4233333E2,6.0666668E1,2.6533334E2,2.9E1,9.3333336E1,1.94E2,3.64E2,1.7E1,4.3E1,1.16E2,1.76E2,2.16E2,1E0,1E0,4.33E2,1E1,1E0,4.3E1,5.6E1,7.6E1,1.81E2,1.14E2,1E0,1.68E2,2.75E2,2.4533333E2,2.63E2,3.0733334E2,4.1E2,4.38E2,-8.660254E-1,-2.6926262E0,1E0,2.4E1,9.7E1,3.5666668E1,1E0,5.2E1,8E1,5.9E1,6.5E1,7.3666664E1,1.07166664E2,1.14E2,9.9E1,1.52E2,3.47E2,1.56E2,1.14E2,1.0323334E3,2.86E2,1E0,2.48E2,2.1766667E2,2.3633333E2,2.34E2,3.22E2,3.2E2,2E0,-1.5E1,1.6E1,3.1E2,4.7966666E2,-2.5311725E0,-2.2760437E0,-2.3442295E0,-2.1476688E0,-1.9814821E0,6.6548444E-2,-1.8216841E0,-1.5360968E0,-2.1356514E0,-1.7555106E0,-1.3007258E0,-9.3041384E-1,-1.4762872E0,-1.8900257E0,-4.3779707E-1,-9.651548E-1,1.1292633E-1,-4.2625794E-1,-1.7668415E0,-1.0471257E0,-3.5360336E-1,-2.3013856E0,3.7493798E-1,-4.4394517E-1,1.5924277E0,7.8874564E-1,-9.031572E-1,-2.4418254E0,-1.3535479E-1,3.1489725E0,1.9531481E0,1.1813656E0,4.593286E0,2.3947446E0,5.908329E-1,-2.3559744E0,-2.3758712E-1,-2.449463E0,3.7794397E0,1.5090928E0,5.300777E0,4.010242E0,2.3707793E0,3.4638035E0,-6.254024E-1,2.2543426E0,7.1872215E0,5.345007E0,7.758841E0,6.335509E0,4.7013416E0,6.480394E0,2.2806318E0,-2.5196273E0,-5.730629E-2,9.049472E0,6.442579E0,-3.3096218E0,8.48409E-1,8.868987E0,1.009567E1,1.2633105E1],"split_indices":[16,16,16,16,16,16,16,16,16,12,12,12,21,21,16,16,22,12,12,16,12,16,22,16,19,16,12,16,12,12,10,0,22,16,13,16,22,16,12,12,12,16,17,12,12,15,14,12,12,2,12,5,12,16,16,12,12,14,1,0,0,15,16,0,0,0,0,0,0,0,0,0,0,0,0,0,0,0,0,0,0,0,0,0,0,0,0,0,0,0,0,0,0,0,0,0,0,0,0,0,0,0,0,0,0,0,0,0,0,0,0,0,0,0,0,0,0,0,0,0,0,0,0,0,0],"split_type":[0,0,0,0,0,0,0,0,0,0,0,0,0,0,0,0,0,0,0,0,0,0,0,0,0,0,0,0,0,0,0,0,0,0,0,0,0,0,0,0,0,0,0,0,0,0,0,0,0,0,0,0,0,0,0,0,0,0,0,0,0,0,0,0,0,0,0,0,0,0,0,0,0,0,0,0,0,0,0,0,0,0,0,0,0,0,0,0,0,0,0,0,0,0,0,0,0,0,0,0,0,0,0,0,0,0,0,0,0,0,0,0,0,0,0,0,0,0,0,0,0,0,0,0,0],"sum_hessian":[2.5849E4,1.9711E4,6.138E3,1.1141E4,8.57E3,4.635E3,1.503E3,6.191E3,4.95E3,4.3E3,4.27E3,2.711E3,1.924E3,9.96E2,5.07E2,3.278E3,2.913E3,2.315E3,2.635E3,3.954E3,3.46E2,4.056E3,2.14E2,2.508E3,2.03E2,1.481E3,4.43E2,7.36E2,2.6E2,3.05E2,2.02E2,7.92E2,2.486E3,2.448E3,4.65E2,1.598E3,7.17E2,1.691E3,9.44E2,1.994E3,1.96E3,2.84E2,6.2E1,1.992E3,2.064E3,1.47E2,6.7E1,1.415E3,1.093E3,1.84E2,1.9E1,1.18E3,3.01E2,3.42E2,1.01E2,4.55E2,2.81E2,2.45E2,1.5E1,2.64E2,4.1E1,9E0,1.93E2,2.322E3,1.64E2,1.721E3,7.27E2,4.58E2,7E0,8.47E2,7.51E2,5.28E2,1.89E2,1.022E3,6.69E2,6.53E2,2.91E2,7.02E2,1.292E3,3.86E2,1.574E3,7.6E1,2.08E2,2E0,6E1,1.537E3,4.55E2,3.8E2,1.684E3,9.2E1,5.5E1,6.3E1,4E0,9.25E2,4.9E2,5.3E1,1.04E3,1.75E2,9E0,4E0,1.5E1,1.128E3,5.2E1,1.88E2,1.13E2,1.49E2,1.93E2,4.6E1,5.5E1,7.6E1,3.79E2,1.45E2,1.36E2,2.07E2,3.8E1,1.1E1,4E0,2E0,2.62E2,3.9E1,2E0,5E0,4E0,9.8E1,9.5E1],"tree_param":{"num_deleted":"0","num_feature":"25","num_nodes":"125","size_leaf_vector":"1"}},{"base_weights":[1.02964796E-1,-2.0154152E1,7.810905E1,-3.72627E1,2.897611E0,5.8032623E1,1.4588118E2,-4.5070522E1,-2.7367714E1,-6.303909E0,1.6807714E1,4.595335E1,7.880221E1,1.2311138E2,1.9173837E2,-4.733036E1,-3.9550343E1,-3.125714E1,-2.1820675E1,-1.04741535E1,1.5193231E0,1.8734875E1,-1.3679784E1,4.8742157E1,1.6348877E1,8.223484E1,4.4963844E1,1.3318446E2,9.71123E1,1.7520786E2,2.3847778E2,-4.950365E1,-4.527132E1,-3.6950413E1,-4.210356E1,-2.8769058E1,-3.5936615E1,-1.9343332E1,-3.1542334E1,-7.828256E0,-2.0076868E1,5.219936E0,-1.3409647E1,1.2234985E1,2.644557E1,-2.3477457E1,7.1433744E0,4.0125774E1,6.1176273E1,2.2643225E1,-3.730975E1,7.4425E1,9.925315E1,-2.895837E1,5.334077E1,1.2325825E2,1.5148537E2,1.0710972E2,5.779312E1,2.1239168E1,1.7210739E2,5.3648502E1,2.4947078E2,-2.6109364E0,-2.4417295E0,-2.12666E0,-2.3117988E0,-1.6051518E0,-1.9516871E0,-2.0751565E0,-2.3199794E0,-1.3753126E0,-1.7768077E0,-1.7060337E0,-2.1022503E0,-7.953579E-1,-1.1187325E0,-1.478731E0,-2.3354447E0,-5.599624E-1,-1.2785171E-1,-8.036464E-1,-1.4461877E0,3.086468E-1,-1.0652405E0,-4.6019647E-1,-1.8917736E0,8.007311E-1,8.149754E-3,1.7247137E0,9.862819E-1,-4.9747878E-1,-2.1916587E0,-1.0712497E0,9.0375614E-1,2.7474473E0,1.6978155E0,7.749393E0,3.006767E0,3.880132E-1,2.0355945E0,1.090334E0,-2.1837595E0,4.1458883E0,3.054726E0,5.2687383E0,3.8670347E0,5.27592E-1,-3.7810152E0,2.9584482E0,-2.0374875E0,1.1633942E1,6.015566E0,8.940597E0,6.5774918E0,5.465379E0,-3.0598817E0,3.9313061E0,-1.5659099E0,9.183219E0,7.1900096E0,4.705581E0,-1.1337089E-2,1.1319226E1,1.514595E1],"categories":[],"categories_nodes":[],"categories_segments":[],"categories_sizes":[],"default_left":[0,0,0,0,0,0,0,0,0,0,0,0,0,0,0,0,0,0,0,0,0,0,0,0,0,0,0,0,0,0,0,0,0,0,0,0,0,0,0,0,0,0,0,0,0,0,0,0,0,0,0,0,0,0,0,0,0,0,0,0,0,0,0,0,0,0,0,0,0,0,0,0,0,0,0,0,0,0,0,0,0,0,0,0,0,0,0,0,0,0,0,0,0,0,0,0,0,0,0,0,0,0,0,0,0,0,0,0,0,0,0,0,0,0,0,0,0,0,0,0,0,0,0,0,0],"id":11,"left_children":[1,3,5,7,9,11,13,15,17,19,21,23,25,27,29,31,33,35,37,39,41,43,45,47,49,51,53,55,57,59,61,63,65,67,69,71,73,75,77,79,81,83,85,87,89,91,93,95,97,99,101,103,105,107,109,111,113,115,117,-1,119,121,123,-1,-1,-1,-1,-1,-1,-1,-1,-1,-1,-1,-1,-1,-1,-1,-1,-1,-1,-1,-1,-1,-1,-1,-1,-1,-1,-1,-1,-1,-1,-1,-1,-1,-1,-1,-1,-1,-1,-1,-1,-1,-1,-1,-1,-1,-1,-1,-1,-1,-1,-1,-1,-1,-1,-1,-1,-1,-1,-1,-1,-1,-1],"loss_changes":[4.0740156E7,8.0719275E6,7.223238E6,9.06398E5,1.1162145E6,1.025494E6,1.244004E6,8.0023E4,1.11162E5,1.7126342E5,2.0425119E5,2.135325E5,1.71348E5,2.00245E5,2.68041E5,1.8582E4,1.114325E4,3.441875E4,5.0929375E4,8.683919E4,1.0094981E5,1.63364E5,4.2399535E4,2.51674E5,7.683767E4,1.74301E5,8.8857625E4,8.7417E4,8.461375E4,1.59031E5,1.938625E5,1.543E3,4.375E3,8.40125E3,5.455E2,1.6053875E4,1.024575E4,1.743475E4,1.15408125E4,4.7699562E4,2.571225E4,3.713862E4,3.694208E4,8.094097E4,8.007106E4,3.8391008E4,2.1311504E4,1.265315E5,8.53035E4,5.4004914E4,9.983656E3,1.01467E5,4.9128E4,2.845227E4,7.2055125E4,9.58285E4,8.5976E4,7.4384E4,9.34288E4,0E0,7.1079E4,1.5281064E4,4.988E4,0E0,0E0,0E0,0E0,0E0,0E0,0E0,0E0,0E0,0E0,0E0,0E0,0E0,0E0,0E0,0E0,0E0,0E0,0E0,0E0,0E0,0E0,0E0,0E0,0E0,0E0,0E0,0E0,0E0,0E0,0E0,0E0,0E0,0E0,0E0,0E0,0E0,0E0,0E0,0E0,0E0,0E0,0E0,0E0,0E0,0E0,0E0,0E0,0E0,0E0,0E0,0E0,0E0,0E0,0E0,0E0,0E0,0E0,0E0,0E0,0E0,0E0],"parents":[2147483647,0,0,1,1,2,2,3,3,4,4,5,5,6,6,7,7,8,8,9,9,10,10,11,11,12,12,13,13,14,14,15,15,16,16,17,17,18,18,19,19,20,20,21,21,22,22,23,23,24,24,25,25,26,26,27,27,28,28,29,29,30,30,31,31,32,32,33,33,34,34,35,35,36,36,37,37,38,38,39,39,40,40,41,41,42,42,43,43,44,44,45,45,46,46,47,47,48,48,49,49,50,50,51,51,52,52,53,53,54,54,55,55,56,56,57,57,58,58,60,60,61,61,62,62],"right_children":[2,4,6,8,10,12,14,16,18,20,22,24,26,28,30,32,34,36,38,40,42,44,46,48,50,52,54,56,58,60,62,64,66,68,70,72,74,76,78,80,82,84,86,88,90,92,94,96,98,100,102,104,106,108,110,112,114,116,118,-1,120,122,124,-1,-1,-1,-1,-1,-1,-1,-1,-1,-1,-1,-1,-1,-1,-1,-1,-1,-1,-1,-1,-1,-1,-1,-1,-1,-1,-1,-1,-1,-1,-1,-1,-1,-1,-1,-1,-1,-1,-1,-1,-1,-1,-1,-1,-1,-1,-1,-1,-1,-1,-1,-1,-1,-1,-1,-1,-1,-1,-1,-1,-1,-1],"split_conditions":[1.55E2,6.5666664E1,2.8333334E2,3.2E1,1.09333336E2,2.1533333E2,3.84E2,2.2E1,5.0666668E1,9.1666664E1,1.88E2,2.3E2,2.93E2,1E0,4.7966666E2,1.4333333E1,1E0,1E0,7.2E1,9.3E1,1.16E2,1.31E2,1E0,1.84E2,2.2E2,2.5466667E2,2.28E2,3.3033334E2,9.83E0,3.22E2,7.5E1,8.666667E0,-7.0710677E-1,-7.0710677E-1,4.6E1,5.7E1,5.8E1,4.02E0,1.34E2,7.9666664E1,1E0,1.17E2,1.1E2,1.3E2,1.33E2,1.22E2,1.31E2,1.46E2,1.63E2,1.94E2,1.44E2,2.3E2,2.81E2,2.09E2,2E0,2.69E2,3.22E2,1E0,3.67E2,2.1239168E1,1E0,-1.1E1,5E0,-2.6109364E0,-2.4417295E0,-2.12666E0,-2.3117988E0,-1.6051518E0,-1.9516871E0,-2.0751565E0,-2.3199794E0,-1.3753126E0,-1.7768077E0,-1.7060337E0,-2.1022503E0,-7.953579E-1,-1.1187325E0,-1.478731E0,-2.3354447E0,-5.599624E-1,-1.2785171E-1,-8.036464E-1,-1.4461877E0,3.086468E-1,-1.0652405E0,-4.6019647E-1,-1.8917736E0,8.007311E-1,8.149754E-3,1.7247137E0,9.862819E-1,-4.9747878E-1,-2.1916587E0,-1.0712497E0,9.0375614E-1,2.7474473E0,1.6978155E0,7.749393E0,3.006767E0,3.880132E-1,2.0355945E0,1.090334E0,-2.1837595E0,4.1458883E0,3.054726E0,5.2687383E0,3.8670347E0,5.27592E-1,-3.7810152E0,2.9584482E0,-2.0374875E0,1.1633942E1,6.015566E0,8.940597E0,6.5774918E0,5.465379E0,-3.0598817E0,3.9313061E0,-1.5659099E0,9.183219E0,7.1900096E0,4.705581E0,-1.1337089E-2,1.1319226E1,1.514595E1],"split_indices":[16,16,16,16,16,16,16,16,16,16,12,12,12,21,16,16,21,21,12,12,12,16,22,16,11,16,16,16,3,11,15,16,9,9,12,12,12,3,12,16,21,11,11,12,12,15,16,12,11,16,13,12,11,14,5,11,12,5,11,0,21,1,7,0,0,0,0,0,0,0,0,0,0,0,0,0,0,0,0,0,0,0,0,0,0,0,0,0,0,0,0,0,0,0,0,0,0,0,0,0,0,0,0,0,0,0,0,0,0,0,0,0,0,0,0,0,0,0,0,0,0,0,0,0,0],"split_type":[0,0,0,0,0,0,0,0,0,0,0,0,0,0,0,0,0,0,0,0,0,0,0,0,0,0,0,0,0,0,0,0,0,0,0,0,0,0,0,0,0,0,0,0,0,0,0,0,0,0,0,0,0,0,0,0,0,0,0,0,0,0,0,0,0,0,0,0,0,0,0,0,0,0,0,0,0,0,0,0,0,0,0,0,0,0,0,0,0,0,0,0,0,0,0,0,0,0,0,0,0,0,0,0,0,0,0,0,0,0,0,0,0,0,0,0,0,0,0,0,0,0,0,0,0],"sum_hessian":[2.578E4,2.0466E4,5.314E3,1.1747E4,8.719E3,4.101E3,1.213E3,6.564E3,5.183E3,5.248E3,3.471E3,2.595E3,1.506E3,8.13E2,4E2,4.652E3,1.912E3,3.044E3,2.139E3,3.423E3,1.825E3,3.265E3,2.06E2,2.371E3,2.24E2,1.366E3,1.4E2,5.83E2,2.3E2,2.99E2,1.01E2,2.252E3,2.4E3,9.55E2,9.57E2,1.992E3,1.052E3,1.707E3,4.32E2,2.685E3,7.38E2,1.463E3,3.62E2,1.773E3,1.492E3,1.4E2,6.6E1,1.403E3,9.68E2,2.01E2,2.3E1,9.4E2,4.26E2,1.4E1,1.26E2,3.83E2,2E2,1.82E2,4.8E1,2E0,2.97E2,6E0,9.5E1,4.3E2,1.822E3,6.37E2,1.763E3,2.92E2,6.63E2,8.49E2,1.08E2,1.683E3,3.09E2,8.16E2,2.36E2,8.03E2,9.04E2,3.85E2,4.7E1,1.637E3,1.048E3,5.1E2,2.28E2,1.413E3,5E1,3.1E2,5.2E1,1.35E3,4.23E2,6.77E2,8.15E2,8.5E1,5.5E1,1.8E1,4.8E1,4.1E2,9.93E2,9E0,9.59E2,1.11E2,9E1,2E0,2.1E1,5.71E2,3.69E2,3.3E2,9.6E1,8E0,6E0,1.19E2,7E0,8E0,3.75E2,8.1E1,1.19E2,1.8E2,2E0,3.9E1,9E0,2.07E2,9E1,3E0,3E0,7E1,2.5E1],"tree_param":{"num_deleted":"0","num_feature":"25","num_nodes":"125","size_leaf_vector":"1"}},{"base_weights":[3.209889E-2,-2.0154383E1,7.0761856E1,-3.512594E1,1.9519317E0,4.9113075E1,1.302394E2,-4.1710827E1,-2.3546835E1,-7.081828E0,1.2945177E1,3.457767E1,6.2445145E1,1.0666978E2,1.76131E2,-4.500278E1,-3.639118E1,-2.2074469E1,-3.4465725E1,-4.5338387E0,-1.7713337E1,1.4434157E1,-1.8844044E1,3.8866535E1,1.2915548E1,5.45706E1,7.347011E1,1.138866E2,8.6048485E1,1.539933E2,2.0782085E2,-4.662518E1,-4.2445255E1,-3.8502316E1,-3.1813116E1,-2.5960333E1,-1.7216726E1,-4.2806995E1,-3.1161959E1,-8.855537E0,3.3950333E-2,-1.3912852E1,-2.9650866E1,1.0151026E1,2.3344687E1,-2.7872528E1,7.609152E-1,4.1827175E1,2.5075193E1,1.7043814E1,-4.678078E1,6.0683453E1,3.0026493E1,7.628554E1,8.275242E0,9.901959E1,1.236657E2,9.041319E1,6.4028964E0,1.5691678E2,-2.0282513E1,1.8654309E2,2.3382948E2,-2.3856707E0,-2.2550628E0,3.7430573E-1,-2.1251688E0,-1.9659256E0,-1.711894E0,-1.4690174E0,-1.8246349E0,-9.4072646E-1,-1.369147E0,-4.3800148E-1,-9.4133776E-1,-1.6167206E0,-2.3262002E0,-1.4878439E0,-2.1075234E0,-1.277334E-1,-6.169325E-1,2.9543638E-1,-2.9608092E-1,-8.9532787E-1,-3.8058776E-1,-1.302466E0,-2.3980298E0,7.7551126E-1,1.5265642E-1,1.3238128E0,2.2060238E-1,-2.733387E-1,-1.9803545E0,2.662743E-1,-1.7941235E0,2.652261E0,1.9056082E0,1.8678068E0,5.713068E-1,1.1557227E-1,1.209531E0,-3.840948E-2,-3.1993747E0,1.767868E1,3.002791E0,1.7458352E0,-1.6791143E0,4.3310184E0,3.298257E0,1.8952503E0,-1.8343304E0,5.036321E0,-2.6873899E0,1.2475516E1,6.0843287E0,3.8224149E0,5.540551E0,3.2599926E0,-2.0019748E0,9.800083E0,7.4788394E0,4.9641547E0,-3.2026126E0,1.0283984E1,6.0819716E0,1.5481181E1,1.0333404E1],"categories":[],"categories_nodes":[],"categories_segments":[],"categories_sizes":[],"default_left":[0,0,0,0,0,0,0,0,0,0,0,0,0,0,0,0,0,0,0,0,0,0,0,0,0,0,0,0,0,0,0,0,0,0,0,0,0,0,0,0,0,0,0,0,0,0,0,0,0,0,0,0,0,0,0,0,0,0,0,0,0,0,0,0,0,0,0,0,0,0,0,0,0,0,0,0,0,0,0,0,0,0,0,0,0,0,0,0,0,0,0,0,0,0,0,0,0,0,0,0,0,0,0,0,0,0,0,0,0,0,0,0,0,0,0,0,0,0,0,0,0,0,0,0,0,0,0],"id":12,"left_children":[1,3,5,7,9,11,13,15,17,19,21,23,25,27,29,31,33,35,37,39,41,43,45,47,49,51,53,55,57,59,61,63,65,67,69,71,73,75,77,79,81,83,85,87,89,91,93,95,97,99,101,103,105,107,109,111,113,115,117,119,121,123,125,-1,-1,-1,-1,-1,-1,-1,-1,-1,-1,-1,-1,-1,-1,-1,-1,-1,-1,-1,-1,-1,-1,-1,-1,-1,-1,-1,-1,-1,-1,-1,-1,-1,-1,-1,-1,-1,-1,-1,-1,-1,-1,-1,-1,-1,-1,-1,-1,-1,-1,-1,-1,-1,-1,-1,-1,-1,-1,-1,-1,-1,-1,-1,-1],"loss_changes":[3.7052444E7,6.681939E6,7.41285E6,9.16805E5,8.097689E5,8.16784E5,1.643704E6,1.32714E5,6.942975E4,1.2116992E5,1.7436462E5,1.8753975E5,1.87247E5,1.417E5,3.32798E5,1.7668E4,2.717075E4,7.222775E4,1.29133125E4,7.130338E4,3.8831125E4,1.3387475E5,2.922671E4,6.7915E4,8.360194E4,1.91573E5,1.67318E5,9.6939E4,9.2585875E4,1.61125E5,7.3149E4,2.636E3,5.68425E3,5.63575E3,9.5494375E3,2.120875E4,2.3172125E4,4.101125E3,4.5202188E3,4.070142E4,6.1508273E4,1.6422086E4,1.2466859E4,9.029539E4,6.747256E4,2.9493625E4,9.05594E3,5.5865E4,5.0027797E4,3.3110234E4,1.73688E4,1.6829225E5,8.173716E4,8.78265E4,5.3346754E4,8.44205E4,8.14675E4,6.3881375E4,4.3570637E4,5.81825E4,3.775944E4,1.252675E5,1.2335E5,0E0,0E0,0E0,0E0,0E0,0E0,0E0,0E0,0E0,0E0,0E0,0E0,0E0,0E0,0E0,0E0,0E0,0E0,0E0,0E0,0E0,0E0,0E0,0E0,0E0,0E0,0E0,0E0,0E0,0E0,0E0,0E0,0E0,0E0,0E0,0E0,0E0,0E0,0E0,0E0,0E0,0E0,0E0,0E0,0E0,0E0,0E0,0E0,0E0,0E0,0E0,0E0,0E0,0E0,0E0,0E0,0E0,0E0,0E0,0E0,0E0,0E0,0E0,0E0],"parents":[2147483647,0,0,1,1,2,2,3,3,4,4,5,5,6,6,7,7,8,8,9,9,10,10,11,11,12,12,13,13,14,14,15,15,16,16,17,17,18,18,19,19,20,20,21,21,22,22,23,23,24,24,25,25,26,26,27,27,28,28,29,29,30,30,31,31,32,32,33,33,34,34,35,35,36,36,37,37,38,38,39,39,40,40,41,41,42,42,43,43,44,44,45,45,46,46,47,47,48,48,49,49,50,50,51,51,52,52,53,53,54,54,55,55,56,56,57,57,58,58,59,59,60,60,61,61,62,62],"right_children":[2,4,6,8,10,12,14,16,18,20,22,24,26,28,30,32,34,36,38,40,42,44,46,48,50,52,54,56,58,60,62,64,66,68,70,72,74,76,78,80,82,84,86,88,90,92,94,96,98,100,102,104,106,108,110,112,114,116,118,120,122,124,126,-1,-1,-1,-1,-1,-1,-1,-1,-1,-1,-1,-1,-1,-1,-1,-1,-1,-1,-1,-1,-1,-1,-1,-1,-1,-1,-1,-1,-1,-1,-1,-1,-1,-1,-1,-1,-1,-1,-1,-1,-1,-1,-1,-1,-1,-1,-1,-1,-1,-1,-1,-1,-1,-1,-1,-1,-1,-1,-1,-1,-1,-1,-1,-1],"split_conditions":[1.4833333E2,6.7333336E1,2.6533334E2,3.8E1,1.02666664E2,1.8633333E2,3.64E2,2.2E1,8E1,1E0,1.88E2,1.91E2,2.2433333E2,1E0,4.33E2,1.6E1,1.7E1,5.2666668E1,4.3E1,8.4333336E1,1.1E2,1.31E2,1E0,1E0,2.02E2,2.24E2,2.81E2,2.91E2,3.67E2,4.85E2,1.4E1,1.2666667E1,6E0,1E0,1E0,3.1E1,4E1,4.92E0,6.7E1,6.6E1,8.9E1,8.5666664E1,1.69375E2,1.14E2,1.51E2,3.57E0,1.46E2,1.36E2,4.92E0,1.6433333E2,1.4E2,-2.3E1,2.39E2,2.34E2,1.76E2,3.35E2,2.69E2,7E0,7.15E0,3.11E2,2.23E0,5.34E0,-6E0,-2.3856707E0,-2.2550628E0,3.7430573E-1,-2.1251688E0,-1.9659256E0,-1.711894E0,-1.4690174E0,-1.8246349E0,-9.4072646E-1,-1.369147E0,-4.3800148E-1,-9.4133776E-1,-1.6167206E0,-2.3262002E0,-1.4878439E0,-2.1075234E0,-1.277334E-1,-6.169325E-1,2.9543638E-1,-2.9608092E-1,-8.9532787E-1,-3.8058776E-1,-1.302466E0,-2.3980298E0,7.7551126E-1,1.5265642E-1,1.3238128E0,2.2060238E-1,-2.733387E-1,-1.9803545E0,2.662743E-1,-1.7941235E0,2.652261E0,1.9056082E0,1.8678068E0,5.713068E-1,1.1557227E-1,1.209531E0,-3.840948E-2,-3.1993747E0,1.767868E1,3.002791E0,1.7458352E0,-1.6791143E0,4.3310184E0,3.298257E0,1.8952503E0,-1.8343304E0,5.036321E0,-2.6873899E0,1.2475516E1,6.0843287E0,3.8224149E0,5.540551E0,3.2599926E0,-2.0019748E0,9.800083E0,7.4788394E0,4.9641547E0,-3.2026126E0,1.0283984E1,6.0819716E0,1.5481181E1,1.0333404E1],"split_indices":[16,16,16,16,16,16,16,16,12,21,12,12,16,21,16,16,6,16,11,16,12,16,22,21,11,12,11,16,11,11,6,16,11,22,21,12,12,3,11,12,12,16,19,12,11,3,11,12,3,16,14,0,11,12,15,11,11,6,3,12,3,3,0,0,0,0,0,0,0,0,0,0,0,0,0,0,0,0,0,0,0,0,0,0,0,0,0,0,0,0,0,0,0,0,0,0,0,0,0,0,0,0,0,0,0,0,0,0,0,0,0,0,0,0,0,0,0,0,0,0,0,0,0,0,0,0,0],"split_type":[0,0,0,0,0,0,0,0,0,0,0,0,0,0,0,0,0,0,0,0,0,0,0,0,0,0,0,0,0,0,0,0,0,0,0,0,0,0,0,0,0,0,0,0,0,0,0,0,0,0,0,0,0,0,0,0,0,0,0,0,0,0,0,0,0,0,0,0,0,0,0,0,0,0,0,0,0,0,0,0,0,0,0,0,0,0,0,0,0,0,0,0,0,0,0,0,0,0,0,0,0,0,0,0,0,0,0,0,0,0,0,0,0,0,0,0,0,0,0,0,0,0,0,0,0,0,0],"sum_hessian":[2.5949E4,2.0188E4,5.761E3,1.2036E4,8.152E3,4.225E3,1.536E3,7.671E3,4.365E3,4.475E3,3.677E3,2.023E3,2.202E3,1.017E3,5.19E2,4.734E3,2.937E3,3.849E3,5.16E2,3.611E3,8.64E2,3.513E3,1.64E2,1.688E3,3.35E2,1.288E3,9.14E2,7.5E2,2.67E2,3.09E2,2.1E2,2.886E3,1.848E3,2.005E3,9.32E2,2.136E3,1.713E3,1.43E2,3.73E2,1.855E3,1.756E3,6.57E2,2.07E2,2.374E3,1.139E3,1.12E2,5.2E1,1.388E3,3E2,3.14E2,2.1E1,1.03E3,2.58E2,8.76E2,3.8E1,3.02E2,4.48E2,2.53E2,1.4E1,3.04E2,5E0,1.2E2,9E1,1.666E3,1.22E3,2E0,1.846E3,1.676E3,3.29E2,6.18E2,3.14E2,3.57E2,1.779E3,2.75E2,1.438E3,4E1,1.03E2,3.34E2,3.9E1,6.61E2,1.194E3,8.84E2,8.72E2,4.01E2,2.56E2,1.75E2,3.2E1,1.352E3,1.022E3,9.77E2,1.62E2,3.9E1,7.3E1,4.7E1,5E0,3.42E2,1.046E3,1.57E2,1.43E2,1.03E2,2.11E2,6E0,1.5E1,1E0,1.029E3,2.4E2,1.8E1,4.34E2,4.42E2,2.3E1,1.5E1,2.99E2,3E0,5E0,4.43E2,1.53E2,1E2,6E0,8E0,4.4E1,2.6E2,1E0,4E0,9.1E1,2.9E1,2.1E1,6.9E1],"tree_param":{"num_deleted":"0","num_feature":"25","num_nodes":"127","size_leaf_vector":"1"}},{"base_weights":[1.4826979E-1,-1.8476107E1,6.992575E1,-3.3736885E1,2.3108954E0,5.2282597E1,1.3726282E2,-4.0083363E1,-2.4029205E1,-6.064359E0,1.5520405E1,4.0346493E1,7.396188E1,1.2266105E2,2.028354E2,-4.2635723E1,-3.5095924E1,-2.161657E1,-2.9867039E1,-1.1306855E1,-9.42613E-1,1.9385263E1,1.1233171E0,4.522781E1,2.2329163E1,8.2022064E1,6.13755E1,1.0657569E2,1.4127852E2,2.13704E2,1.5944257E2,-4.4442337E1,-4.0580193E1,-3.6645924E1,-3.0220924E1,-2.5065062E1,-1.7109129E1,-2.8496708E1,-3.663505E1,-9.152841E0,-1.9934244E1,1.3043785E-1,-3.2987633E1,1.5122556E1,2.7081854E1,1.0316434E1,-4.951028E0,3.7481915E1,5.5581753E1,2.4902746E1,-4.956898E1,7.335402E1,9.2873726E1,6.4663005E0,6.413359E1,1.1857888E2,8.257781E1,1.4321762E2,-1.8974798E1,1.8507413E2,2.3837936E2,1.9537183E2,9.469466E1,-2.1030338E0,-2.2540836E0,-2.0562696E0,-1.8041769E0,-1.6257238E0,-1.8983353E0,-1.2649515E0,-1.593561E0,-1.2011611E0,-1.5138721E0,-7.4410546E-1,-1.1422738E0,-1.6156424E0,-1.2981476E0,-2.5044973E0,-1.7317733E0,-3.8822025E-1,-9.038143E-1,-7.539338E-1,-1.3099655E0,1.2096234E-1,-4.9508667E-1,-2.765696E-1,-1.9088719E0,8.264883E-1,-7.6657254E-1,6.9352775E0,1.322965E0,-2.1572506E0,5.714583E-1,-1.8438517E-1,-2.882095E0,1.9181188E0,-2.1841128E0,3.5972562E0,2.5625947E0,5.565743E-1,1.5915557E0,1.55763E0,-3.5197399E0,3.7474256E0,7.125537E-1,4.7938643E0,3.0883002E0,1.409713E0,-3.4476662E0,3.2606485E0,-2.4548144E0,1.6348835E1,5.816592E0,4.3004036E0,9.676295E-2,-2.162349E0,7.1880984E0,4.840051E0,-3.0745084E0,1.6037281E1,8.869234E0,1.3917564E0,1.20303755E1,1.5382151E1,8.479678E0,6.0300384E0,-1.3063459E0],"categories":[],"categories_nodes":[],"categories_segments":[],"categories_sizes":[],"default_left":[0,0,0,0,0,0,0,0,0,0,0,0,0,0,0,0,0,0,0,0,0,0,0,0,0,0,0,0,0,0,0,0,0,0,0,0,0,0,0,0,0,0,0,0,0,0,0,0,0,0,0,0,0,0,0,0,0,0,0,0,0,0,0,0,0,0,0,0,0,0,0,0,0,0,0,0,0,0,0,0,0,0,0,0,0,0,0,0,0,0,0,0,0,0,0,0,0,0,0,0,0,0,0,0,0,0,0,0,0,0,0,0,0,0,0,0,0,0,0,0,0,0,0,0,0,0,0],"id":13,"left_children":[1,3,5,7,9,11,13,15,17,19,21,23,25,27,29,31,33,35,37,39,41,43,45,47,49,51,53,55,57,59,61,63,65,67,69,71,73,75,77,79,81,83,85,87,89,91,93,95,97,99,101,103,105,107,109,111,113,115,117,119,121,123,125,-1,-1,-1,-1,-1,-1,-1,-1,-1,-1,-1,-1,-1,-1,-1,-1,-1,-1,-1,-1,-1,-1,-1,-1,-1,-1,-1,-1,-1,-1,-1,-1,-1,-1,-1,-1,-1,-1,-1,-1,-1,-1,-1,-1,-1,-1,-1,-1,-1,-1,-1,-1,-1,-1,-1,-1,-1,-1,-1,-1,-1,-1,-1,-1],"loss_changes":[3.371063E7,6.495279E6,6.485454E6,7.2646E5,9.591717E5,1.117991E6,1.060896E6,8.9369E4,6.512925E4,1.4245934E5,1.8716031E5,2.448935E5,1.50892E5,2.6345E5,6.2608E4,1.5714E4,1.719375E4,5.099025E4,1.1597125E4,4.854353E4,9.233054E4,8.659806E4,3.9866535E4,1.742775E5,1.1188591E5,8.1042E4,9.105775E4,1.350975E5,1.35717E5,6.9621E4,8.618475E4,1.9105E3,3.9535E3,8.768E3,3.9860625E3,9.4385E3,1.8017625E4,1.01645E4,4.3454688E3,2.5877875E4,1.5514844E4,5.9701473E4,1.218568E4,7.349297E4,6.1930125E4,1.7387781E4,2.8410682E4,9.17895E4,6.2842E4,5.4794E4,3.7495934E4,4.831325E4,3.247925E4,5.1105523E4,7.3477E4,1.17899E5,4.71365E4,4.9152E4,3.548582E4,2.552075E4,3.22395E4,2.8862125E4,5.949125E4,0E0,0E0,0E0,0E0,0E0,0E0,0E0,0E0,0E0,0E0,0E0,0E0,0E0,0E0,0E0,0E0,0E0,0E0,0E0,0E0,0E0,0E0,0E0,0E0,0E0,0E0,0E0,0E0,0E0,0E0,0E0,0E0,0E0,0E0,0E0,0E0,0E0,0E0,0E0,0E0,0E0,0E0,0E0,0E0,0E0,0E0,0E0,0E0,0E0,0E0,0E0,0E0,0E0,0E0,0E0,0E0,0E0,0E0,0E0,0E0,0E0,0E0,0E0,0E0],"parents":[2147483647,0,0,1,1,2,2,3,3,4,4,5,5,6,6,7,7,8,8,9,9,10,10,11,11,12,12,13,13,14,14,15,15,16,16,17,17,18,18,19,19,20,20,21,21,22,22,23,23,24,24,25,25,26,26,27,27,28,28,29,29,30,30,31,31,32,32,33,33,34,34,35,35,36,36,37,37,38,38,39,39,40,40,41,41,42,42,43,43,44,44,45,45,46,46,47,47,48,48,49,49,50,50,51,51,52,52,53,53,54,54,55,55,56,56,57,57,58,58,59,59,60,60,61,61,62,62],"right_children":[2,4,6,8,10,12,14,16,18,20,22,24,26,28,30,32,34,36,38,40,42,44,46,48,50,52,54,56,58,60,62,64,66,68,70,72,74,76,78,80,82,84,86,88,90,92,94,96,98,100,102,104,106,108,110,112,114,116,118,120,122,124,126,-1,-1,-1,-1,-1,-1,-1,-1,-1,-1,-1,-1,-1,-1,-1,-1,-1,-1,-1,-1,-1,-1,-1,-1,-1,-1,-1,-1,-1,-1,-1,-1,-1,-1,-1,-1,-1,-1,-1,-1,-1,-1,-1,-1,-1,-1,-1,-1,-1,-1,-1,-1,-1,-1,-1,-1,-1,-1,-1,-1,-1,-1,-1,-1],"split_conditions":[1.5333333E2,6.5666664E1,2.91E2,3.5E1,1.09333336E2,2.1766667E2,4.33E2,2.2E1,1E0,8.5E1,1E0,1E0,4.02E0,3.45E2,6.26E0,1.5E1,1E0,5.2E1,7.05E1,1E0,1.17E2,1.3533333E2,4.02E0,1.84E2,2.35E2,2.5466667E2,-1.1E1,5E-1,4.85E2,4.7966666E2,1E0,-7.0710677E-1,1E0,3.13E0,-8E0,1E0,6.3666668E1,4.3E1,2.9E1,8.4E1,8.0833336E1,1E0,1.79E0,1.42E2,9.6E1,-2E1,1.68E2,2.13E2,4E0,1.6966667E2,7.15E0,2.74E2,2.93E2,3.0175E2,3.1E2,1.4391667E2,3.67E2,9.98E2,2.23E0,6.9E1,-2.4E1,-6E0,9.659258E-1,-2.1030338E0,-2.2540836E0,-2.0562696E0,-1.8041769E0,-1.6257238E0,-1.8983353E0,-1.2649515E0,-1.593561E0,-1.2011611E0,-1.5138721E0,-7.4410546E-1,-1.1422738E0,-1.6156424E0,-1.2981476E0,-2.5044973E0,-1.7317733E0,-3.8822025E-1,-9.038143E-1,-7.539338E-1,-1.3099655E0,1.2096234E-1,-4.9508667E-1,-2.765696E-1,-1.9088719E0,8.264883E-1,-7.6657254E-1,6.9352775E0,1.322965E0,-2.1572506E0,5.714583E-1,-1.8438517E-1,-2.882095E0,1.9181188E0,-2.1841128E0,3.5972562E0,2.5625947E0,5.565743E-1,1.5915557E0,1.55763E0,-3.5197399E0,3.7474256E0,7.125537E-1,4.7938643E0,3.0883002E0,1.409713E0,-3.4476662E0,3.2606485E0,-2.4548144E0,1.6348835E1,5.816592E0,4.3004036E0,9.676295E-2,-2.162349E0,7.1880984E0,4.840051E0,-3.0745084E0,1.6037281E1,8.869234E0,1.3917564E0,1.20303755E1,1.5382151E1,8.479678E0,6.0300384E0,-1.3063459E0],"split_indices":[16,16,16,16,16,16,16,16,21,16,21,21,3,16,3,16,22,16,17,21,11,16,3,16,11,16,0,9,11,16,21,9,22,3,0,20,17,16,11,11,17,21,3,11,11,0,11,11,1,16,3,11,11,18,11,18,11,2,3,13,0,0,10,0,0,0,0,0,0,0,0,0,0,0,0,0,0,0,0,0,0,0,0,0,0,0,0,0,0,0,0,0,0,0,0,0,0,0,0,0,0,0,0,0,0,0,0,0,0,0,0,0,0,0,0,0,0,0,0,0,0,0,0,0,0,0,0],"split_type":[0,0,0,0,0,0,0,0,0,0,0,0,0,0,0,0,0,0,0,0,0,0,0,0,0,0,0,0,0,0,0,0,0,0,0,0,0,0,0,0,0,0,0,0,0,0,0,0,0,0,0,0,0,0,0,0,0,0,0,0,0,0,0,0,0,0,0,0,0,0,0,0,0,0,0,0,0,0,0,0,0,0,0,0,0,0,0,0,0,0,0,0,0,0,0,0,0,0,0,0,0,0,0,0,0,0,0,0,0,0,0,0,0,0,0,0,0,0,0,0,0,0,0,0,0,0,0],"sum_hessian":[2.5938E4,2.0474E4,5.464E3,1.1806E4,8.668E3,4.331E3,1.133E3,7.137E3,4.669E3,5.305E3,3.363E3,2.795E3,1.536E3,9.29E2,2.04E2,4.716E3,2.421E3,3.307E3,1.362E3,2.621E3,2.684E3,2.651E3,7.12E2,2.198E3,5.97E2,9.33E2,6.03E2,5.02E2,4.27E2,1.6E2,4.4E1,2.499E3,2.217E3,1.832E3,5.89E2,1.871E3,1.436E3,1.137E3,2.25E2,2.099E3,5.22E2,2.598E3,8.6E1,1.708E3,9.43E2,2.83E2,4.29E2,1.26E3,9.38E2,5.77E2,2E1,5.23E2,4.1E2,2.9E1,5.74E2,3.32E2,1.7E2,4.22E2,5E0,7.8E1,8.2E1,2.7E1,1.7E1,5.43E2,1.956E3,1.97E3,2.47E2,4.5E2,1.382E3,1.52E2,4.37E2,1.564E3,3.07E2,1.037E3,3.99E2,4.49E2,6.88E2,2.6E1,1.99E2,1.818E3,2.81E2,2.96E2,2.26E2,2.116E3,4.82E2,1.4E1,7.2E1,1.633E3,7.5E1,4E0,9.39E2,5E0,2.78E2,4.2E2,9E0,1.247E3,1.3E1,1.93E2,7.45E2,1.94E2,3.83E2,4E0,1.6E1,5.09E2,1.4E1,3.72E2,3.8E1,2.3E1,6E0,5.69E2,5E0,2E0,3.3E2,1.63E2,7E0,1E0,4.21E2,1E0,4E0,2E0,7.6E1,1E0,8.1E1,3E0,2.4E1,1.4E1,3E0],"tree_param":{"num_deleted":"0","num_feature":"25","num_nodes":"127","size_leaf_vector":"1"}},{"base_weights":[3.2634803E-4,-1.9566172E1,5.9684853E1,-3.2502254E1,-7.922246E-1,4.1417076E1,1.1365174E2,-3.809042E1,-2.2963604E1,-9.522919E0,7.5328827E0,2.9427435E1,5.6203255E1,9.7114685E1,1.6326814E2,-4.058333E1,-3.3317688E1,-2.5764479E1,-1.9558022E1,-7.6091275E0,-1.9145275E1,2.888217E0,1.4088515E1,3.1794626E1,2.7036324E-1,5.951839E1,2.962757E1,1.0924019E2,8.049457E1,1.4760152E2,2.082066E2,-4.214693E1,-3.8562496E1,-3.4868618E1,-2.8295376E1,-2.228786E1,-2.9685438E1,-1.5582278E1,-2.4623964E1,-1.0432162E1,-1.927292E0,-1.651993E1,-3.34841E1,4.524052E0,-2.2703127E1,2.033677E1,3.304465E0,2.7131895E1,4.108688E1,-1.1245804E1,2.6696478E1,5.0908764E1,7.011962E1,3.458653E1,-5.2894703E1,9.374875E1,1.1966519E2,8.217012E1,-3.6593124E1,1.7044876E2,1.3776137E2,2.2040794E2,7.391363E1,-2.2362745E0,-2.07914E0,4.2616963E-1,-1.9305687E0,-1.5402602E0,-1.8071553E0,-1.4283727E0,1.7594484E0,-7.703365E-1,-1.2215073E0,-1.6575936E0,-1.385583E0,-4.4406173E-1,-8.708996E-1,-1.1756859E0,-2.0277188E0,-2.2478247E-1,-6.486992E-1,2.4629526E0,-1.2982348E-1,-7.230155E-1,-1.5934929E0,-1.7021259E0,5.310177E-1,7.983243E-1,7.436686E-2,-6.607846E-1,-2.5936062E0,1.5063604E0,8.2754153E-1,2.8638694E-1,-1.4356893E0,1.4263598E0,-3.7820458E-1,4.690856E0,1.9232649E0,3.9235884E-1,-1.3484622E0,7.044647E0,1.0218698E0,2.93672E0,1.9621762E0,4.1809955E0,3.245142E0,-3.935735E-1,2.017886E0,-9.245232E-2,-3.656403E0,5.0637546E0,3.7177224E0,6.5707736E0,4.8634505E0,4.200687E0,-7.473647E-2,2.4042485E0,-2.7779639E0,1.4931476E0,8.670267E0,-3.1944644E0,6.9495354E0,1.359274E1,9.762125E0,-9.263073E-1,5.8088636E0],"categories":[],"categories_nodes":[],"categories_segments":[],"categories_sizes":[],"default_left":[0,0,0,0,0,0,0,0,0,0,0,0,0,0,0,0,0,0,0,0,0,0,0,0,0,0,0,0,0,0,0,0,0,0,0,0,0,0,0,0,0,0,0,0,0,0,0,0,0,0,0,0,0,0,0,0,0,0,0,0,0,0,0,0,0,0,0,0,0,0,0,0,0,0,0,0,0,0,0,0,0,0,0,0,0,0,0,0,0,0,0,0,0,0,0,0,0,0,0,0,0,0,0,0,0,0,0,0,0,0,0,0,0,0,0,0,0,0,0,0,0,0,0,0,0,0,0],"id":14,"left_children":[1,3,5,7,9,11,13,15,17,19,21,23,25,27,29,31,33,35,37,39,41,43,45,47,49,51,53,55,57,59,61,63,65,67,69,71,73,75,77,79,81,83,85,87,89,91,93,95,97,99,101,103,105,107,109,111,113,115,117,119,121,123,125,-1,-1,-1,-1,-1,-1,-1,-1,-1,-1,-1,-1,-1,-1,-1,-1,-1,-1,-1,-1,-1,-1,-1,-1,-1,-1,-1,-1,-1,-1,-1,-1,-1,-1,-1,-1,-1,-1,-1,-1,-1,-1,-1,-1,-1,-1,-1,-1,-1,-1,-1,-1,-1,-1,-1,-1,-1,-1,-1,-1,-1,-1,-1,-1],"loss_changes":[3.0348064E7,4.753014E6,6.32054E6,6.16753E5,5.804532E5,8.48408E5,1.315012E6,8.5563E4,4.035025E4,7.163672E4,1.2443367E5,1.8289525E5,1.873035E5,2.36868E5,2.53698E5,1.35225E4,1.858E4,3.1332E4,3.8629188E4,5.215808E4,2.376511E4,1.0032328E5,1.1414441E5,1.050805E5,6.116573E4,1.704875E5,1.0004342E5,1.02153E5,1.0463125E5,4.46395E4,1.50841E5,2.056E3,5.16925E3,8.804E3,1.1334281E4,1.802075E4,6.6075E3,1.3229031E4,1.40800625E4,3.2731297E4,3.7155125E4,1.6864172E4,2.799789E3,7.819267E4,3.9164883E4,3.927322E4,4.850239E4,7.936825E4,1.0933075E5,4.2240656E4,4.0721188E4,9.409525E4,5.457775E4,5.5940156E4,1.4324332E4,